{"learner":{"attributes":{"scikit_learn":"{\"_estimator_type\": \"classifier\"}"},"feature_names":["tipo_suelo","pH","materia_organica","conductividad","nitrogeno","fosforo","potasio","humedad","densidad","altitud"],"feature_types":["int","float","float","float","float","float","float","float","float","float"],"gradient_booster":{"model":{"gbtree_model_param":{"num_parallel_tree":"1","num_trees":"2200"},"iteration_indptr":[0,11,22,33,44,55,66,77,88,99,110,121,132,143,154,165,176,187,198,209,220,231,242,253,264,275,286,297,308,319,330,341,352,363,374,385,396,407,418,429,440,451,462,473,484,495,506,517,528,539,550,561,572,583,594,605,616,627,638,649,660,671,682,693,704,715,726,737,748,759,770,781,792,803,814,825,836,847,858,869,880,891,902,913,924,935,946,957,968,979,990,1001,1012,1023,1034,1045,1056,1067,1078,1089,1100,1111,1122,1133,1144,1155,1166,1177,1188,1199,1210,1221,1232,1243,1254,1265,1276,1287,1298,1309,1320,1331,1342,1353,1364,1375,1386,1397,1408,1419,1430,1441,1452,1463,1474,1485,1496,1507,1518,1529,1540,1551,1562,1573,1584,1595,1606,1617,1628,1639,1650,1661,1672,1683,1694,1705,1716,1727,1738,1749,1760,1771,1782,1793,1804,1815,1826,1837,1848,1859,1870,1881,1892,1903,1914,1925,1936,1947,1958,1969,1980,1991,2002,2013,2024,2035,2046,2057,2068,2079,2090,2101,2112,2123,2134,2145,2156,2167,2178,2189,2200],"tree_info":[0,1,2,3,4,5,6,7,8,9,10,0,1,2,3,4,5,6,7,8,9,10,0,1,2,3,4,5,6,7,8,9,10,0,1,2,3,4,5,6,7,8,9,10,0,1,2,3,4,5,6,7,8,9,10,0,1,2,3,4,5,6,7,8,9,10,0,1,2,3,4,5,6,7,8,9,10,0,1,2,3,4,5,6,7,8,9,10,0,1,2,3,4,5,6,7,8,9,10,0,1,2,3,4,5,6,7,8,9,10,0,1,2,3,4,5,6,7,8,9,10,0,1,2,3,4,5,6,7,8,9,10,0,1,2,3,4,5,6,7,8,9,10,0,1,2,3,4,5,6,7,8,9,10,0,1,2,3,4,5,6,7,8,9,10,0,1,2,3,4,5,6,7,8,9,10,0,1,2,3,4,5,6,7,8,9,10,0,1,2,3,4,5,6,7,8,9,10,0,1,2,3,4,5,6,7,8,9,10,0,1,2,3,4,5,6,7,8,9,10,0,1,2,3,4,5,6,7,8,9,10,0,1,2,3,4,5,6,7,8,9,10,0,1,2,3,4,5,6,7,8,9,10,0,1,2,3,4,5,6,7,8,9,10,0,1,2,3,4,5,6,7,8,9,10,0,1,2,3,4,5,6,7,8,9,10,0,1,2,3,4,5,6,7,8,9,10,0,1,2,3,4,5,6,7,8,9,10,0,1,2,3,4,5,6,7,8,9,10,0,1,2,3,4,5,6,7,8,9,10,0,1,2,3,4,5,6,7,8,9,10,0,1,2,3,4,5,6,7,8,9,10,0,1,2,3,4,5,6,7,8,9,10,0,1,2,3,4,5,6,7,8,9,10,0,1,2,3,4,5,6,7,8,9,10,0,1,2,3,4,5,6,7,8,9,10,0,1,2,3,4,5,6,7,8,9,10,0,1,2,3,4,5,6,7,8,9,10,0,1,2,3,4,5,6,7,8,9,10,0,1,2,3,4,5,6,7,8,9,10,0,1,2,3,4,5,6,7,8,9,10,0,1,2,3,4,5,6,7,8,9,10,0,1,2,3,4,5,6,7,8,9,10,0,1,2,3,4,5,6,7,8,9,10,0,1,2,3,4,5,6,7,8,9,10,0,1,2,3,4,5,6,7,8,9,10,0,1,2,3,4,5,6,7,8,9,10,0,1,2,3,4,5,6,7,8,9,10,0,1,2,3,4,5,6,7,8,9,10,0,1,2,3,4,5,6,7,8,9,10,0,1,2,3,4,5,6,7,8,9,10,0,1,2,3,4,5,6,7,8,9,10,0,1,2,3,4,5,6,7,8,9,10,0,1,2,3,4,5,6,7,8,9,10,0,1,2,3,4,5,6,7,8,9,10,0,1,2,3,4,5,6,7,8,9,10,0,1,2,3,4,5,6,7,8,9,10,0,1,2,3,4,5,6,7,8,9,10,0,1,2,3,4,5,6,7,8,9,10,0,1,2,3,4,5,6,7,8,9,10,0,1,2,3,4,5,6,7,8,9,10,0,1,2,3,4,5,6,7,8,9,10,0,1,2,3,4,5,6,7,8,9,10,0,1,2,3,4,5,6,7,8,9,10,0,1,2,3,4,5,6,7,8,9,10,0,1,2,3,4,5,6,7,8,9,10,0,1,2,3,4,5,6,7,8,9,10,0,1,2,3,4,5,6,7,8,9,10,0,1,2,3,4,5,6,7,8,9,10,0,1,2,3,4,5,6,7,8,9,10,0,1,2,3,4,5,6,7,8,9,10,0,1,2,3,4,5,6,7,8,9,10,0,1,2,3,4,5,6,7,8,9,10,0,1,2,3,4,5,6,7,8,9,10,0,1,2,3,4,5,6,7,8,9,10,0,1,2,3,4,5,6,7,8,9,10,0,1,2,3,4,5,6,7,8,9,10,0,1,2,3,4,5,6,7,8,9,10,0,1,2,3,4,5,6,7,8,9,10,0,1,2,3,4,5,6,7,8,9,10,0,1,2,3,4,5,6,7,8,9,10,0,1,2,3,4,5,6,7,8,9,10,0,1,2,3,4,5,6,7,8,9,10,0,1,2,3,4,5,6,7,8,9,10,0,1,2,3,4,5,6,7,8,9,10,0,1,2,3,4,5,6,7,8,9,10,0,1,2,3,4,5,6,7,8,9,10,0,1,2,3,4,5,6,7,8,9,10,0,1,2,3,4,5,6,7,8,9,10,0,1,2,3,4,5,6,7,8,9,10,0,1,2,3,4,5,6,7,8,9,10,0,1,2,3,4,5,6,7,8,9,10,0,1,2,3,4,5,6,7,8,9,10,0,1,2,3,4,5,6,7,8,9,10,0,1,2,3,4,5,6,7,8,9,10,0,1,2,3,4,5,6,7,8,9,10,0,1,2,3,4,5,6,7,8,9,10,0,1,2,3,4,5,6,7,8,9,10,0,1,2,3,4,5,6,7,8,9,10,0,1,2,3,4,5,6,7,8,9,10,0,1,2,3,4,5,6,7,8,9,10,0,1,2,3,4,5,6,7,8,9,10,0,1,2,3,4,5,6,7,8,9,10,0,1,2,3,4,5,6,7,8,9,10,0,1,2,3,4,5,6,7,8,9,10,0,1,2,3,4,5,6,7,8,9,10,0,1,2,3,4,5,6,7,8,9,10,0,1,2,3,4,5,6,7,8,9,10,0,1,2,3,4,5,6,7,8,9,10,0,1,2,3,4,5,6,7,8,9,10,0,1,2,3,4,5,6,7,8,9,10,0,1,2,3,4,5,6,7,8,9,10,0,1,2,3,4,5,6,7,8,9,10,0,1,2,3,4,5,6,7,8,9,10,0,1,2,3,4,5,6,7,8,9,10,0,1,2,3,4,5,6,7,8,9,10,0,1,2,3,4,5,6,7,8,9,10,0,1,2,3,4,5,6,7,8,9,10,0,1,2,3,4,5,6,7,8,9,10,0,1,2,3,4,5,6,7,8,9,10,0,1,2,3,4,5,6,7,8,9,10,0,1,2,3,4,5,6,7,8,9,10,0,1,2,3,4,5,6,7,8,9,10,0,1,2,3,4,5,6,7,8,9,10,0,1,2,3,4,5,6,7,8,9,10,0,1,2,3,4,5,6,7,8,9,10,0,1,2,3,4,5,6,7,8,9,10,0,1,2,3,4,5,6,7,8,9,10,0,1,2,3,4,5,6,7,8,9,10,0,1,2,3,4,5,6,7,8,9,10,0,1,2,3,4,5,6,7,8,9,10,0,1,2,3,4,5,6,7,8,9,10,0,1,2,3,4,5,6,7,8,9,10,0,1,2,3,4,5,6,7,8,9,10,0,1,2,3,4,5,6,7,8,9,10,0,1,2,3,4,5,6,7,8,9,10,0,1,2,3,4,5,6,7,8,9,10,0,1,2,3,4,5,6,7,8,9,10,0,1,2,3,4,5,6,7,8,9,10,0,1,2,3,4,5,6,7,8,9,10,0,1,2,3,4,5,6,7,8,9,10,0,1,2,3,4,5,6,7,8,9,10,0,1,2,3,4,5,6,7,8,9,10,0,1,2,3,4,5,6,7,8,9,10,0,1,2,3,4,5,6,7,8,9,10,0,1,2,3,4,5,6,7,8,9,10,0,1,2,3,4,5,6,7,8,9,10,0,1,2,3,4,5,6,7,8,9,10,0,1,2,3,4,5,6,7,8,9,10,0,1,2,3,4,5,6,7,8,9,10,0,1,2,3,4,5,6,7,8,9,10,0,1,2,3,4,5,6,7,8,9,10,0,1,2,3,4,5,6,7,8,9,10,0,1,2,3,4,5,6,7,8,9,10,0,1,2,3,4,5,6,7,8,9,10,0,1,2,3,4,5,6,7,8,9,10,0,1,2,3,4,5,6,7,8,9,10,0,1,2,3,4,5,6,7,8,9,10,0,1,2,3,4,5,6,7,8,9,10,0,1,2,3,4,5,6,7,8,9,10,0,1,2,3,4,5,6,7,8,9,10,0,1,2,3,4,5,6,7,8,9,10,0,1,2,3,4,5,6,7,8,9,10,0,1,2,3,4,5,6,7,8,9,10,0,1,2,3,4,5,6,7,8,9,10,0,1,2,3,4,5,6,7,8,9,10,0,1,2,3,4,5,6,7,8,9,10,0,1,2,3,4,5,6,7,8,9,10,0,1,2,3,4,5,6,7,8,9,10,0,1,2,3,4,5,6,7,8,9,10,0,1,2,3,4,5,6,7,8,9,10,0,1,2,3,4,5,6,7,8,9,10,0,1,2,3,4,5,6,7,8,9,10,0,1,2,3,4,5,6,7,8,9,10,0,1,2,3,4,5,6,7,8,9,10,0,1,2,3,4,5,6,7,8,9,10,0,1,2,3,4,5,6,7,8,9,10,0,1,2,3,4,5,6,7,8,9,10,0,1,2,3,4,5,6,7,8,9,10,0,1,2,3,4,5,6,7,8,9,10,0,1,2,3,4,5,6,7,8,9,10,0,1,2,3,4,5,6,7,8,9,10,0,1,2,3,4,5,6,7,8,9,10,0,1,2,3,4,5,6,7,8,9,10,0,1,2,3,4,5,6,7,8,9,10,0,1,2,3,4,5,6,7,8,9,10,0,1,2,3,4,5,6,7,8,9,10,0,1,2,3,4,5,6,7,8,9,10,0,1,2,3,4,5,6,7,8,9,10,0,1,2,3,4,5,6,7,8,9,10,0,1,2,3,4,5,6,7,8,9,10,0,1,2,3,4,5,6,7,8,9,10,0,1,2,3,4,5,6,7,8,9,10,0,1,2,3,4,5,6,7,8,9,10,0,1,2,3,4,5,6,7,8,9,10,0,1,2,3,4,5,6,7,8,9,10,0,1,2,3,4,5,6,7,8,9,10,0,1,2,3,4,5,6,7,8,9,10,0,1,2,3,4,5,6,7,8,9,10,0,1,2,3,4,5,6,7,8,9,10],"trees":[{"base_weights":[1.1538893E0,2.9320226E0,-5.461912E-1,-5.345733E-1,5.475462E-1,-1.7564872E-1,-5.48638E-2,-5.4661173E-2,9.147607E-2,-3.65651E-2,1.6858235E-2,6.3218385E-2,-3.5483874E-2],"categories":[],"categories_nodes":[],"categories_segments":[],"categories_sizes":[],"default_left":[0,0,0,0,0,0,0,0,0,0,0,0,0],"id":0,"left_children":[1,3,5,7,-1,9,-1,-1,11,-1,-1,-1,-1],"loss_changes":[2.4030134E3,3.4278147E3,2.7259064E-1,1.2957878E0,0E0,3.324501E-1,0E0,0E0,1.1836436E0,0E0,0E0,0E0,0E0],"parents":[2147483647,0,0,1,1,2,2,3,3,5,5,8,8],"right_children":[2,4,6,8,-1,10,-1,-1,12,-1,-1,-1,-1],"split_conditions":[1.99934E3,8.0769E2,2.01967E3,7.8821E2,5.475462E-1,7.08E0,-5.48638E-2,-5.4661173E-2,2.79E0,-3.65651E-2,1.6858235E-2,6.3218385E-2,-3.5483874E-2],"split_indices":[9,9,9,9,0,1,0,0,2,0,0,0,0],"split_type":[0,0,0,0,0,0,0,0,0,0,0,0,0],"sum_hessian":[7.933884E2,3.8743802E2,4.059504E2,1.6429752E2,2.2314049E2,3.1404958E0,4.028099E2,1.6132231E2,2.9752066E0,1.983471E0,1.1570247E0,1.1570247E0,1.8181818E0],"tree_param":{"num_deleted":"0","num_feature":"10","num_nodes":"13","size_leaf_vector":"1"}},{"base_weights":[-2.6893219E-2,-5.3588057E-1,2.865912E0,-5.4917555E-2,3.811442E-1,1.6192893E0,3.8330631E0,-3.1102762E-2,1.681063E-1,1.7752055E0,-8.320729E-2,3.339662E0,4.8196584E-1,7.096774E-2,-3.269917E-1,2.1765165E0,9.915216E-1,-4.222649E-2,6.3218385E-2,3.6114385E0,2.0523028E0,-4.550642E-2,1.6858235E-2,-2.9501919E-2,2.279654E0,3.6637586E-1,1.5985467E0,1.2125983E-1,3.7218237E0,2.8245363E0,9.2582023E-1,2.608537E-1,1.19056426E-1,9.149723E-2,-3.923903E-3,2.3853354E-1,3.9759036E-2,3.8198504E-1,8.770764E-2,3.1515712E-1,9.786477E-2,1.51497E-1,-3.4267914E-2],"categories":[],"categories_nodes":[],"categories_segments":[],"categories_sizes":[],"default_left":[0,0,0,0,0,0,0,0,0,0,0,0,0,0,0,0,0,0,0,0,0,0,0,0,0,0,0,0,0,0,0,0,0,0,0,0,0,0,0,0,0,0,0],"id":1,"left_children":[1,3,5,-1,7,9,11,13,-1,15,17,19,-1,-1,21,23,25,-1,-1,27,29,-1,-1,-1,31,33,35,-1,37,39,41,-1,-1,-1,-1,-1,-1,-1,-1,-1,-1,-1,-1],"loss_changes":[1.1711942E3,8.455551E0,1.3728809E2,0E0,5.548455E0,1.4409454E1,1.617273E1,2.1540349E0,0E0,1.3335648E1,1.5920017E0,9.188416E0,0E0,0E0,5.1785445E-1,8.764313E0,6.4425335E0,0E0,0E0,5.511963E0,6.5945053E0,0E0,0E0,0E0,7.8500214E0,2.3548803E0,7.649412E0,0E0,6.6080627E0,4.1301727E-1,4.8487573E0,0E0,0E0,0E0,0E0,0E0,0E0,0E0,0E0,0E0,0E0,0E0,0E0],"parents":[2147483647,0,0,1,1,2,2,4,4,5,5,6,6,7,7,9,9,10,10,11,11,14,14,15,15,16,16,19,19,20,20,24,24,25,25,26,26,28,28,29,29,30,30],"right_children":[2,4,6,-1,8,10,12,14,-1,16,18,20,-1,-1,22,24,26,-1,-1,28,30,-1,-1,-1,32,34,36,-1,38,40,42,-1,-1,-1,-1,-1,-1,-1,-1,-1,-1,-1,-1],"split_conditions":[3.54458E3,3.49261E3,3.83129E3,-5.4917555E-2,2.09E0,3.869E1,4.18016E3,4.6E-1,1.681063E-1,7.24E0,2.78E2,4.684E1,4.8196584E-1,7.096774E-2,7.66E0,1.58E0,1.5E0,-4.222649E-2,6.3218385E-2,1.039E1,4.03144E3,-4.550642E-2,1.6858235E-2,-2.9501919E-2,4E0,1.31E0,1.9045E2,1.2125983E-1,8.44E0,3.126E1,1.6E0,2.608537E-1,1.19056426E-1,9.149723E-2,-3.923903E-3,2.3853354E-1,3.9759036E-2,3.8198504E-1,8.770764E-2,3.1515712E-1,9.786477E-2,1.51497E-1,-3.4267914E-2],"split_indices":[9,9,9,0,3,7,9,3,0,1,6,4,0,0,1,2,3,0,0,5,9,0,0,0,0,8,6,0,1,7,8,0,0,0,0,0,0,0,0,0,0,0,0],"split_type":[0,0,0,0,0,0,0,0,0,0,0,0,0,0,0,0,0,0,0,0,0,0,0,0,0,0,0,0,0,0,0,0,0,0,0,0,0,0,0,0,0,0,0],"sum_hessian":[7.933884E2,6.753719E2,1.18016525E2,6.6611566E2,9.256198E0,5.2727272E1,6.528925E1,7.7685947E0,1.4876033E0,4.826446E1,4.46281E0,4.644628E1,1.8842976E1,1.8181818E0,5.950413E0,3.0743801E1,1.752066E1,3.3057852E0,1.1570247E0,3.6859505E1,9.586777E0,4.7933884E0,1.1570247E0,1.1570247E0,2.9586777E1,9.421488E0,8.099174E0,2.1487603E0,3.4710743E1,4.7933884E0,4.7933884E0,2.1652893E1,7.933884E0,3.4710743E0,5.950413E0,4.2975206E0,3.801653E0,3.322314E1,1.4876033E0,3.4710743E0,1.322314E0,3.1404958E0,1.6528926E0],"tree_param":{"num_deleted":"0","num_feature":"10","num_nodes":"43","size_leaf_vector":"1"}},{"base_weights":[1.3250902E0,1.9907718E0,-4.0745306E-1,3.1641877E-1,5.46517E-1,-5.335208E-1,-3.1183562E-1,1.4860257E0,-5.4754622E-2,-2.033272E-1,-5.4392852E-2,-1.40945E-1,-5.228228E-1,-5.44974E-2,5.3681153E-1,1.6858235E-2,-3.840399E-2,-3.3955732E-1,4.606033E-1,7.3089683E-3,-5.4009825E-2,6.86963E-2,-4.2747676E-1,2.7830457E-2,1.2864652E0,-3.7650328E-2,1.542056E-1,2.5984248E-2,-4.6772655E-2,-2.3438651E-2,1.0645161E-1,-3.1316727E-2,1.7753743E-1],"categories":[],"categories_nodes":[],"categories_segments":[],"categories_sizes":[],"default_left":[0,0,0,0,0,0,0,0,0,0,0,0,0,0,0,0,0,0,0,0,0,0,0,0,0,0,0,0,0,0,0,0,0],"id":2,"left_children":[1,3,5,7,-1,9,11,13,-1,15,-1,17,19,-1,-1,-1,-1,21,23,-1,-1,25,27,29,31,-1,-1,-1,-1,-1,-1,-1,-1],"loss_changes":[9.169966E2,3.3377773E3,2.5016098E0,3.9333005E2,0E0,2.1263695E-1,4.551276E0,1.3062173E3,0E0,3.6523783E-1,0E0,8.787229E0,6.2661076E-1,0E0,0E0,0E0,0E0,1.999352E0,6.524602E0,0E0,0E0,7.5248704E0,1.3746662E0,3.801356E0,5.47466E0,0E0,0E0,0E0,0E0,0E0,0E0,0E0,0E0],"parents":[2147483647,0,0,1,1,2,2,3,3,5,5,6,6,7,7,9,9,11,11,12,12,17,17,18,18,21,21,22,22,23,23,24,24],"right_children":[2,4,6,8,-1,10,12,14,-1,16,-1,18,20,-1,-1,-1,-1,22,24,-1,-1,26,28,30,32,-1,-1,-1,-1,-1,-1,-1,-1],"split_conditions":[2.99992E3,1.99934E3,3.49261E3,8.0769E2,5.46517E-1,3.0196E3,3.88986E3,5.0008E2,-5.4754622E-2,1.15E0,-5.4392852E-2,1.54E0,1.8E-1,-5.44974E-2,5.3681153E-1,1.6858235E-2,-3.840399E-2,1.275E1,7.53E0,7.3089683E-3,-5.4009825E-2,7.55E0,1.549E1,4.56E0,7E-1,-3.7650328E-2,1.542056E-1,2.5984248E-2,-4.6772655E-2,-2.3438651E-2,1.0645161E-1,-3.1316727E-2,1.7753743E-1],"split_indices":[9,9,9,9,0,9,9,9,0,3,0,8,3,0,0,0,0,7,1,0,0,1,4,2,3,0,0,0,0,0,0,0,0],"split_type":[0,0,0,0,0,0,0,0,0,0,0,0,0,0,0,0,0,0,0,0,0,0,0,0,0,0,0,0,0,0,0,0,0],"sum_hessian":[7.933884E2,5.7305786E2,2.2033058E2,3.8743802E2,1.8561983E2,9.3057846E1,1.2727273E2,1.6429752E2,2.2314049E2,3.4710743E0,8.958678E1,7.123967E1,5.603306E1,1.0842975E2,5.5867767E1,1.1570247E0,2.3140495E0,5.3884296E1,1.7355371E1,1.4876033E0,5.4545452E1,9.586777E0,4.429752E1,1.2066115E1,5.289256E0,7.933884E0,1.6528926E0,2.1487603E0,4.2148758E1,1.0247933E1,1.8181818E0,1.322314E0,3.966942E0],"tree_param":{"num_deleted":"0","num_feature":"10","num_nodes":"33","size_leaf_vector":"1"}},{"base_weights":[-5.4679E-1],"categories":[],"categories_nodes":[],"categories_segments":[],"categories_sizes":[],"default_left":[0],"id":3,"left_children":[-1],"loss_changes":[0E0],"parents":[2147483647],"right_children":[-1],"split_conditions":[-5.4679003E-2],"split_indices":[0],"split_type":[0],"sum_hessian":[7.933884E2],"tree_param":{"num_deleted":"0","num_feature":"10","num_nodes":"1","size_leaf_vector":"1"}},{"base_weights":[-5.404959E-1,-5.4917928E-2,-4.8974344E-1,-1.1340209E-1,-5.193638E-1,-4.6018895E-2,3.0889234E-1,1.6858235E-2,-5.2777182E-2,8.9501314E-2,-3.753281E-2],"categories":[],"categories_nodes":[],"categories_segments":[],"categories_sizes":[],"default_left":[0,0,0,0,0,0,0,0,0,0,0],"id":4,"left_children":[1,-1,3,5,7,-1,9,-1,-1,-1,-1],"loss_changes":[8.114624E-2,0E0,1.337841E0,1.6683356E0,7.5922585E-1,0E0,2.460419E0,0E0,0E0,0E0,0E0],"parents":[2147483647,0,0,2,2,3,3,4,4,6,6],"right_children":[2,-1,4,6,8,-1,10,-1,-1,-1,-1],"split_conditions":[3.50839E3,-5.4917928E-2,3.56449E3,7.08E0,1.307E1,-4.6018895E-2,3.32E0,1.6858235E-2,-5.2777182E-2,8.9501314E-2,-3.753281E-2],"split_indices":[9,0,9,1,4,0,2,0,0,0,0],"split_type":[0,0,0,0,0,0,0,0,0,0,0],"sum_hessian":[7.933884E2,6.690909E2,1.24297516E2,9.421488E0,1.1487603E2,5.1239667E0,4.2975206E0,1.1570247E0,1.1371901E2,2.1487603E0,2.1487603E0],"tree_param":{"num_deleted":"0","num_feature":"10","num_nodes":"11","size_leaf_vector":"1"}},{"base_weights":[2.7648482E-1,5.4497397E-1,-5.491982E-2],"categories":[],"categories_nodes":[],"categories_segments":[],"categories_sizes":[],"default_left":[0,0,0],"id":5,"left_children":[1,-1,-1],"loss_changes":[3.3961982E3,0E0,0E0],"parents":[2147483647,0,0],"right_children":[2,-1,-1],"split_conditions":[5.0008E2,5.4497397E-1,-5.491982E-2],"split_indices":[9,0,0],"split_type":[0,0,0],"sum_hessian":[7.933884E2,1.0842975E2,6.849587E2],"tree_param":{"num_deleted":"0","num_feature":"10","num_nodes":"3","size_leaf_vector":"1"}},{"base_weights":[-4.788132E-1,-5.4917555E-2,-1.0914248E-1,1.1864716E0,-2.600529E-1,2.2274618E0,3.275696E-1,1.3102493E-1,-2.9896086E-1,2.688468E0,1.6858235E-2,8.3207256E-1,-4.1716572E-2,9.786477E-2,-3.226969E-1,3.1678006E-1,6.3218385E-2,-3.1316727E-2,1.273453E0,-2.3800024E-1,-5.053559E-1,2.0229886E-1,3.0470911E-2,3.5304874E-3,-3.14033E-2,-3.0470935E-3,-5.331987E-2],"categories":[],"categories_nodes":[],"categories_segments":[],"categories_sizes":[],"default_left":[0,0,0,0,0,0,0,0,0,0,0,0,0,0,0,0,0,0,0,0,0,0,0,0,0,0,0],"id":6,"left_children":[1,-1,3,5,7,9,11,-1,13,15,-1,17,-1,-1,19,-1,-1,-1,21,23,25,-1,-1,-1,-1,-1,-1],"loss_changes":[2.060286E1,0E0,2.5388638E1,1.13962345E1,7.4613237E0,5.20249E0,3.579556E0,0E0,3.7646275E0,2.7300873E0,0E0,3.1601808E0,0E0,0E0,1.6186962E0,0E0,0E0,0E0,2.3900228E0,1.6461926E0,4.4281387E-1,0E0,0E0,0E0,0E0,0E0,0E0],"parents":[2147483647,0,0,2,2,3,3,4,4,5,5,6,6,8,8,9,9,11,11,14,14,18,18,19,19,20,20],"right_children":[2,-1,4,6,8,10,12,-1,14,16,-1,18,-1,-1,20,-1,-1,-1,22,24,26,-1,-1,-1,-1,-1,-1],"split_conditions":[3.49261E3,-5.4917555E-2,5.91E0,1.3295E2,1.02E0,3.229E1,3.41E0,1.3102493E-1,1.58E0,3.87508E3,1.6858235E-2,1.6424E2,-4.1716572E-2,9.786477E-2,4.03144E3,3.1678006E-1,6.3218385E-2,-3.1316727E-2,1.85E1,1.0908E2,6.12E0,2.0229886E-1,3.0470911E-2,3.5304874E-3,-3.14033E-2,-3.0470935E-3,-5.331987E-2],"split_indices":[9,0,1,6,8,7,2,0,2,9,0,6,0,0,9,0,0,0,5,6,1,0,0,0,0,0,0],"split_type":[0,0,0,0,0,0,0,0,0,0,0,0,0,0,0,0,0,0,0,0,0,0,0,0,0,0,0],"sum_hessian":[7.933884E2,6.6611566E2,1.2727273E2,1.2561983E1,1.1471074E2,4.958678E0,7.603306E0,1.983471E0,1.1272727E2,3.801653E0,1.1570247E0,4.46281E0,3.1404958E0,1.322314E0,1.1140495E2,2.644628E0,1.1570247E0,1.322314E0,3.1404958E0,7.768595E1,3.371901E1,1.1570247E0,1.983471E0,1.7024794E1,6.0661156E1,1.983471E0,3.1735537E1],"tree_param":{"num_deleted":"0","num_feature":"10","num_nodes":"27","size_leaf_vector":"1"}},{"base_weights":[4.300621E-1,-5.4904193E-2,2.967589E0,5.3711777E0,1.0825143E0,5.4308933E-1,2.6070687E-1,1.2799186E0,-2.775854E-1,9.106785E-1,1.7245365E0,3.073852E-1,-4.3570995E-1,1.13015E0,1.510159E-1,8.6749196E-1,2.1591206E0,-3.5483874E-2,9.786477E-2,1.6858235E-2,-5.0566293E-2,1.5409404E-1,6.490802E-2,-3.732328E-2,7.616345E-2,1.0762756E-1,-3.840399E-2,2.262157E-1,-2.9501919E-2],"categories":[],"categories_nodes":[],"categories_segments":[],"categories_sizes":[],"default_left":[0,0,0,0,0,0,0,0,0,0,0,0,0,0,0,0,0,0,0,0,0,0,0,0,0,0,0,0,0],"id":7,"left_children":[1,-1,3,5,7,-1,-1,9,11,13,15,17,19,21,23,25,27,-1,-1,-1,-1,-1,-1,-1,-1,-1,-1,-1,-1],"loss_changes":[1.9752896E3,0E0,9.970222E2,1.8579102E0,3.3996338E1,0E0,0E0,1.6421814E1,1.6788805E0,1.016486E1,1.622966E1,2.1878204E0,6.585386E-1,8.474079E0,5.1018806E0,5.1232004E0,8.652512E0,0E0,0E0,0E0,0E0,0E0,0E0,0E0,0E0,0E0,0E0,0E0,0E0],"parents":[2147483647,0,0,2,2,3,3,4,4,7,7,8,8,9,9,10,10,11,11,12,12,13,13,14,14,15,15,16,16],"right_children":[2,-1,4,6,8,-1,-1,10,12,14,16,18,20,22,24,26,28,-1,-1,-1,-1,-1,-1,-1,-1,-1,-1,-1,-1],"split_conditions":[2.99992E3,-5.4904193E-2,3.50839E3,3.49261E3,4.22758E3,5.4308933E-1,2.6070687E-1,3.6E1,4.26332E3,2.5394E2,1.448E2,6.9E0,1.78E0,3.79346E3,7.04E0,2.13E0,3.2493E2,-3.5483874E-2,9.786477E-2,1.6858235E-2,-5.0566293E-2,1.5409404E-1,6.490802E-2,-3.732328E-2,7.616345E-2,1.0762756E-1,-3.840399E-2,2.262157E-1,-2.9501919E-2],"split_indices":[9,0,9,9,9,0,0,4,9,6,6,1,2,9,1,3,6,0,0,0,0,0,0,0,0,0,0,0,0],"split_type":[0,0,0,0,0,0,0,0,0,0,0,0,0,0,0,0,0,0,0,0,0,0,0,0,0,0,0,0,0],"sum_hessian":[7.933884E2,5.7305786E2,2.2033058E2,9.603306E1,1.24297516E2,9.3057846E1,2.9752066E0,1.0859504E2,1.5702479E1,6.0991734E1,4.7603306E1,3.1404958E0,1.2561983E1,4.6942146E1,1.4049586E1,1.7024794E1,3.0578512E1,1.8181818E0,1.322314E0,1.1570247E0,1.1404959E1,2.413223E1,2.2809917E1,7.7685947E0,6.2809916E0,1.4710744E1,2.3140495E0,2.9421488E1,1.1570247E0],"tree_param":{"num_deleted":"0","num_feature":"10","num_nodes":"29","size_leaf_vector":"1"}},{"base_weights":[-5.2287227E-1,-5.4917928E-2,-3.780094E-1,-1.2537496E-1,-4.964498E-1,-3.936382E-1,4.7407866E-1,-5.0730544E-1,-2.1150037E-9,-4.5874006E-1,6.3218385E-2,-2.9533833E-8,1.5149701E0,-2.9308912E-1,-5.2911705E-1,1.4965984E-1,-5.2825876E-2,8.9501314E-2,-3.5483873E-1,1.6858235E-2,1.9806094E-1,3.5483867E-2,-4.821611E-2,-2.5741032E-1,-5.4213453E-2,6.3218385E-2,-3.289037E-2,-4.6894036E-2,1.6858235E-2,-4.1716572E-2,1.6858235E-2],"categories":[],"categories_nodes":[],"categories_segments":[],"categories_sizes":[],"default_left":[0,0,0,0,0,0,0,0,0,0,0,0,0,0,0,0,0,0,0,0,0,0,0,0,0,0,0,0,0,0,0],"id":8,"left_children":[1,-1,3,5,7,9,11,13,-1,15,-1,17,19,21,23,25,-1,-1,27,-1,-1,-1,-1,29,-1,-1,-1,-1,-1,-1,-1],"loss_changes":[2.819748E0,0E0,3.686924E0,6.833042E0,4.5791245E-1,2.2333355E0,6.5292277E0,2.3342705E-1,0E0,1.2608776E0,0E0,3.5223093E0,2.2619085E0,1.3870273E0,1.2296867E-1,1.0495392E0,0E0,0E0,5.533854E-1,0E0,0E0,0E0,0E0,4.308475E-1,0E0,0E0,0E0,0E0,0E0,0E0,0E0],"parents":[2147483647,0,0,2,2,3,3,4,4,5,5,6,6,7,7,9,9,11,11,12,12,13,13,14,14,15,15,18,18,23,23],"right_children":[2,-1,4,6,8,10,12,14,-1,16,-1,18,20,22,24,26,-1,-1,28,-1,-1,-1,-1,30,-1,-1,-1,-1,-1,-1,-1],"split_conditions":[3.50839E3,-5.4917928E-2,3.72968E3,7.39E0,4.334E1,4.12E1,2.4343E2,1.018E1,-2.1150037E-9,1.062E1,6.3218385E-2,7.4E-1,2.84E0,2.315E1,1.516E1,1.1441E2,-5.2825876E-2,8.9501314E-2,3.442E1,1.6858235E-2,1.9806094E-1,3.5483867E-2,-4.821611E-2,4E0,-5.4213453E-2,6.3218385E-2,-3.289037E-2,-4.6894036E-2,1.6858235E-2,-4.1716572E-2,1.6858235E-2],"split_indices":[9,0,9,1,5,7,6,7,0,5,0,3,2,4,4,6,0,0,7,0,0,0,0,0,0,0,0,0,0,0,0],"split_type":[0,0,0,0,0,0,0,0,0,0,0,0,0,0,0,0,0,0,0,0,0,0,0,0,0,0,0,0,0,0,0],"sum_hessian":[7.933884E2,6.690909E2,1.24297516E2,4.0330578E1,8.396694E1,2.8099173E1,1.2231404E1,8.214876E1,1.8181818E0,2.6942148E1,1.1570247E0,9.090909E0,3.1404958E0,8.92562E0,7.322314E1,2.644628E0,2.429752E1,2.1487603E0,6.9421487E0,1.1570247E0,1.983471E0,1.8181818E0,7.107438E0,4.2975206E0,6.892562E1,1.1570247E0,1.4876033E0,5.785124E0,1.1570247E0,3.1404958E0,1.1570247E0],"tree_param":{"num_deleted":"0","num_feature":"10","num_nodes":"31","size_leaf_vector":"1"}},{"base_weights":[-5.253899E-1,-5.4918326E-2,-3.8974327E-1,-2.0521793E-1,-5.4170307E-2,-2.7835214E-1,7.904191E-1,-3.6059666E-1,7.904191E-1,-3.1316727E-2,1.4193548E-1,-4.35326E-1,-7.74103E-2,2.0229886E-1,-3.65651E-2,-5.0679572E-2,1.8932872E-2,-4.647888E-2,3.3245727E-2],"categories":[],"categories_nodes":[],"categories_segments":[],"categories_sizes":[],"default_left":[0,0,0,0,0,0,0,0,0,0,0,0,0,0,0,0,0,0,0],"id":9,"left_children":[1,-1,3,5,-1,7,9,11,13,-1,-1,15,17,-1,-1,-1,-1,-1,-1],"loss_changes":[2.3498383E0,0E0,3.3095322E0,4.348813E0,0E0,4.9931517E0,3.318351E0,1.0333376E0,6.6396513E0,0E0,0E0,1.8673167E0,2.0191312E0,0E0,0E0,0E0,0E0,0E0,0E0],"parents":[2147483647,0,0,2,2,3,3,5,5,6,6,7,7,8,8,11,11,12,12],"right_children":[2,-1,4,6,-1,8,10,12,14,-1,-1,16,18,-1,-1,-1,-1,-1,-1],"split_conditions":[3.52963E3,-5.4918326E-2,3.83129E3,5E0,-5.4170307E-2,5.078E1,3E0,3.316E1,1.19E0,-3.1316727E-2,1.4193548E-1,7.84E0,2.744E1,2.0229886E-1,-3.65651E-2,-5.0679572E-2,1.8932872E-2,-4.647888E-2,3.3245727E-2],"split_indices":[9,0,9,2,0,4,0,7,8,0,0,1,5,0,0,0,0,0,0],"split_type":[0,0,0,0,0,0,0,0,0,0,0,0,0,0,0,0,0,0,0],"sum_hessian":[7.933884E2,6.7239667E2,1.2099173E2,5.5702477E1,6.528925E1,5.256198E1,3.1404958E0,4.9421486E1,3.1404958E0,1.322314E0,1.8181818E0,3.8677685E1,1.0743801E1,1.1570247E0,1.983471E0,3.4876034E1,3.801653E0,5.4545455E0,5.289256E0],"tree_param":{"num_deleted":"0","num_feature":"10","num_nodes":"19","size_leaf_vector":"1"}},{"base_weights":[-5.4427236E-1,-5.455125E-2,-1.9001922E-1,1.6858235E-2,-3.753281E-2],"categories":[],"categories_nodes":[],"categories_segments":[],"categories_sizes":[],"default_left":[0,0,0,0,0],"id":10,"left_children":[1,-1,3,-1,-1],"loss_changes":[2.4533081E-1,0E0,3.4940192E-1,0E0,0E0],"parents":[2147483647,0,0,2,2],"right_children":[2,-1,4,-1,-1],"split_conditions":[4.485E1,-5.455125E-2,2.62E0,1.6858235E-2,-3.753281E-2],"split_indices":[7,0,2,0,0],"split_type":[0,0,0,0,0],"sum_hessian":[7.933884E2,7.9008264E2,3.3057852E0,1.1570247E0,2.1487603E0],"tree_param":{"num_deleted":"0","num_feature":"10","num_nodes":"5","size_leaf_vector":"1"}},{"base_weights":[9.571836E-1,2.0862973E0,-5.424038E-1,-5.2987593E-1,3.2284063E-1,-1.6449854E-1,-5.449912E-2,-5.426429E-2,9.965652E-2,-3.6053915E-2,1.8417342E-2,7.082301E-2,-3.5903417E-2],"categories":[],"categories_nodes":[],"categories_segments":[],"categories_sizes":[],"default_left":[0,0,0,0,0,0,0,0,0,0,0,0,0],"id":11,"left_children":[1,3,5,7,-1,9,-1,-1,11,-1,-1,-1,-1],"loss_changes":[1.5075428E3,1.5188135E3,2.8479004E-1,1.3011093E0,0E0,3.4230006E-1,0E0,0E0,1.3510187E0,0E0,0E0,0E0,0E0],"parents":[2147483647,0,0,1,1,2,2,3,3,5,5,8,8],"right_children":[2,4,6,8,-1,10,-1,-1,12,-1,-1,-1,-1],"split_conditions":[1.99934E3,8.0769E2,2.01967E3,7.8821E2,3.2284063E-1,3.105E1,-5.449912E-2,-5.426429E-2,2.65E0,-3.6053915E-2,1.8417342E-2,7.082301E-2,-3.5903417E-2],"split_indices":[9,9,9,9,0,5,0,0,2,0,0,0,0],"split_type":[0,0,0,0,0,0,0,0,0,0,0,0,0],"sum_hessian":[8.886804E2,5.0673975E2,3.819407E2,1.5415665E2,3.525831E2,3.0363238E0,3.7890436E2,1.5122775E2,2.9288979E0,1.9217728E0,1.1145511E0,1.0249747E0,1.9039232E0],"tree_param":{"num_deleted":"0","num_feature":"10","num_nodes":"13","size_leaf_vector":"1"}},{"base_weights":[-2.119541E-2,-5.3123575E-1,2.1197915E0,-5.453188E-2,3.568062E-1,1.2200129E0,2.596566E0,-3.230609E-2,1.4802921E-1,1.3254926E0,-5.16176E-2,2.383499E0,3.133978E-1,-3.2579198E-1,6.873341E-2,-1.3392785E-1,1.4101033E0,-4.133375E-2,6.8701945E-2,2.4232166E0,1.0497493E-2,-4.566369E-2,2.225902E-2,1.819124E-2,-3.418325E-2,1.6744645E0,1.0228384E0,6.2675156E-2,2.4430509E0,2.0157492E-1,8.088093E-2,1.9619333E-2,1.35017E-1,2.5013098E-1,1.4340387E-1],"categories":[],"categories_nodes":[],"categories_segments":[],"categories_sizes":[],"default_left":[0,0,0,0,0,0,0,0,0,0,0,0,0,0,0,0,0,0,0,0,0,0,0,0,0,0,0,0,0,0,0,0,0,0,0],"id":12,"left_children":[1,3,5,-1,7,9,11,13,-1,15,17,19,-1,21,-1,23,25,-1,-1,27,-1,-1,-1,-1,-1,29,31,-1,33,-1,-1,-1,-1,-1,-1],"loss_changes":[8.579885E2,8.129974E0,6.1681824E1,0E0,4.642309E0,7.3442E0,3.74292E0,2.079319E0,0E0,6.378601E0,1.6512154E0,6.4694214E0,0E0,5.9806114E-1,0E0,3.0252394E-1,3.1467896E0,0E0,0E0,1.0692444E0,0E0,0E0,0E0,0E0,0E0,6.2399826E0,5.6410713E0,0E0,6.359558E-1,0E0,0E0,0E0,0E0,0E0,0E0],"parents":[2147483647,0,0,1,1,2,2,4,4,5,5,6,6,7,7,9,9,10,10,11,11,13,13,15,15,16,16,19,19,25,25,26,26,28,28],"right_children":[2,4,6,-1,8,10,12,14,-1,16,18,20,-1,22,-1,24,26,-1,-1,28,-1,-1,-1,-1,-1,30,32,-1,34,-1,-1,-1,-1,-1,-1],"split_conditions":[3.54458E3,3.49261E3,3.79346E3,-5.453188E-2,2.09E0,3.869E1,4.22758E3,2.2161E2,1.4802921E-1,7.522E1,2.78E2,1.79E0,3.133978E-1,7.55E0,6.873341E-2,3.66973E3,3.482E1,-4.133375E-2,6.8701945E-2,1.6E-1,1.0497493E-2,-4.566369E-2,2.225902E-2,1.819124E-2,-3.418325E-2,7.36E0,8.6E-1,6.2675156E-2,4.055E1,2.0157492E-1,8.088093E-2,1.9619333E-2,1.35017E-1,2.5013098E-1,1.4340387E-1],"split_indices":[9,9,9,0,3,7,9,6,0,6,6,8,0,1,0,9,4,0,0,3,0,0,0,0,0,1,3,0,5,0,0,0,0,0,0],"split_type":[0,0,0,0,0,0,0,0,0,0,0,0,0,0,0,0,0,0,0,0,0,0,0,0,0,0,0,0,0,0,0,0,0,0,0],"sum_hessian":[7.8367993E2,6.335122E2,1.5016768E2,6.2400244E2,9.509799E0,5.3243774E1,9.6923904E1,7.78482E0,1.724979E0,4.9126453E1,4.1173215E0,7.329849E1,2.3625412E1,5.9184318E0,1.8663886E0,2.6601176E0,4.6466335E1,3.0594668E0,1.0578544E0,7.1980286E1,1.3182093E0,4.9133906E0,1.0050414E0,1.1055822E0,1.5545355E0,2.5639833E1,2.0826504E1,1.1420323E0,7.083825E1,1.7436792E1,8.20304E0,6.361217E0,1.4465287E1,6.557318E1,5.265071E0],"tree_param":{"num_deleted":"0","num_feature":"10","num_nodes":"35","size_leaf_vector":"1"}},{"base_weights":[1.0844063E0,1.5359439E0,-3.9831945E-1,2.8709927E-1,3.2261512E-1,-5.2879864E-1,-3.023207E-1,1.2026803E0,-5.4358598E-2,-1.9197652E-1,-5.3981174E-2,-1.3387136E-1,-5.182463E-1,-5.4089546E-2,3.2085323E-1,1.844224E-2,-3.7858292E-2,-3.3104002E-1,4.2665222E-1,7.6677664E-3,-5.3637695E-2,7.189062E-2,-4.206814E-1,-1.1804996E-1,9.858831E-1,-3.692012E-2,1.3770713E-1,2.4601959E-2,-4.6199176E-2,5.924054E-2,-3.6645688E-2,2.1617992E-1,4.313988E-2],"categories":[],"categories_nodes":[],"categories_segments":[],"categories_sizes":[],"default_left":[0,0,0,0,0,0,0,0,0,0,0,0,0,0,0,0,0,0,0,0,0,0,0,0,0,0,0,0,0,0,0,0,0],"id":13,"left_children":[1,3,5,7,-1,9,11,13,-1,15,-1,17,19,-1,-1,-1,-1,21,23,-1,-1,25,27,29,31,-1,-1,-1,-1,-1,-1,-1,-1],"loss_changes":[6.050897E2,1.4604042E3,2.49012E0,3.0429578E2,0E0,2.2406769E-1,4.4488344E0,6.6701715E2,0E0,3.7528333E-1,0E0,8.002375E0,6.245651E-1,0E0,0E0,0E0,0E0,1.9511929E0,5.8877797E0,0E0,0E0,6.572154E0,1.3158755E0,2.0685687E0,5.2326736E0,0E0,0E0,0E0,0E0,0E0,0E0,0E0,0E0],"parents":[2147483647,0,0,1,1,2,2,3,3,5,5,6,6,7,7,9,9,11,11,12,12,17,17,18,18,21,21,22,22,23,23,24,24],"right_children":[2,4,6,8,-1,10,12,14,-1,16,-1,18,20,-1,-1,-1,-1,22,24,-1,-1,26,28,30,32,-1,-1,-1,-1,-1,-1,-1,-1],"split_conditions":[2.99992E3,1.99934E3,3.49261E3,8.0769E2,3.2261512E-1,3.0196E3,3.88986E3,5.0008E2,-5.4358598E-2,2.822E1,-5.3981174E-2,1.54E0,1.8E-1,-5.4089546E-2,3.2085323E-1,1.844224E-2,-3.7858292E-2,1.275E1,2.65E1,7.6677664E-3,-5.3637695E-2,7.55E0,1.549E1,3.59959E3,9.5E1,-3.692012E-2,1.3770713E-1,2.4601959E-2,-4.6199176E-2,5.924054E-2,-3.6645688E-2,2.1617992E-1,4.313988E-2],"split_indices":[9,9,9,9,0,9,9,9,0,4,0,8,3,0,0,0,0,7,7,0,0,1,4,9,6,0,0,0,0,0,0,0,0],"split_type":[0,0,0,0,0,0,0,0,0,0,0,0,0,0,0,0,0,0,0,0,0,0,0,0,0,0,0,0,0,0,0,0,0],"sum_hessian":[9.01871E2,6.9130927E2,2.1056172E2,3.9823495E2,2.9307428E2,8.734124E1,1.2322049E2,1.8922424E2,2.0901073E2,3.34896E0,8.399228E1,7.013011E1,5.3090374E1,1.0162105E2,8.7603195E1,1.1138818E0,2.235078E0,5.218354E1,1.7946571E1,1.4746058E0,5.161577E1,9.532726E0,4.2650814E1,9.491027E0,8.455544E0,7.660837E0,1.8718888E0,2.199417E0,4.0451397E1,2.1000285E0,7.390998E0,1.7806007E0,6.674944E0],"tree_param":{"num_deleted":"0","num_feature":"10","num_nodes":"33","size_leaf_vector":"1"}},{"base_weights":[-5.4291004E-1],"categories":[],"categories_nodes":[],"categories_segments":[],"categories_sizes":[],"default_left":[0],"id":14,"left_children":[-1],"loss_changes":[0E0],"parents":[2147483647],"right_children":[-1],"split_conditions":[-5.4291006E-2],"split_indices":[0],"split_type":[0],"sum_hessian":[7.449301E2],"tree_param":{"num_deleted":"0","num_feature":"10","num_nodes":"1","size_leaf_vector":"1"}},{"base_weights":[-5.3625464E-1,-5.4532867E-2,-4.8411438E-1,-1.1067944E-1,-5.14835E-1,-2.763906E-1,7.076258E-2,1.6624091E-2,-5.23628E-2,7.018423E-2,-4.8285898E-2],"categories":[],"categories_nodes":[],"categories_segments":[],"categories_sizes":[],"default_left":[0,0,0,0,0,0,0,0,0,0,0],"id":15,"left_children":[1,-1,3,5,7,9,-1,-1,-1,-1,-1],"loss_changes":[8.9157104E-2,0E0,1.3145313E0,1.6005807E0,7.4694633E-1,2.2244093E0,0E0,0E0,0E0,0E0,0E0],"parents":[2147483647,0,0,2,2,3,3,4,4,5,5],"right_children":[2,-1,4,6,8,10,-1,-1,-1,-1,-1],"split_conditions":[3.50839E3,-5.4532867E-2,3.56449E3,8.02E0,1.307E1,1.898E1,7.076258E-2,1.6624091E-2,-5.23628E-2,7.018423E-2,-4.8285898E-2],"split_indices":[9,0,9,1,4,4,0,0,0,0,0],"split_type":[0,0,0,0,0,0,0,0,0,0,0],"sum_hessian":[7.454059E2,6.268545E2,1.1855136E2,9.361176E0,1.09190186E2,8.335444E0,1.0257317E0,1.1635023E0,1.0802669E2,1.0345492E0,7.300895E0],"tree_param":{"num_deleted":"0","num_feature":"10","num_nodes":"11","size_leaf_vector":"1"}},{"base_weights":[2.4965662E-1,3.2258555E-1,-5.454815E-2],"categories":[],"categories_nodes":[],"categories_segments":[],"categories_sizes":[],"default_left":[0,0,0],"id":16,"left_children":[1,-1,-1],"loss_changes":[1.9309348E3,0E0,0E0],"parents":[2147483647,0,0],"right_children":[2,-1,-1],"split_conditions":[5.0008E2,3.2258555E-1,-5.454815E-2],"split_indices":[9,0,0],"split_type":[0,0,0],"sum_hessian":[8.1420557E2,1.710203E2,6.4318524E2],"tree_param":{"num_deleted":"0","num_feature":"10","num_nodes":"3","size_leaf_vector":"1"}},{"base_weights":[-4.713311E-1,-5.453188E-2,-1.01141624E-1,1.0673374E0,-2.5072908E-1,1.8759055E0,3.148261E-1,1.5976976E-1,-2.8351563E-1,2.3049736E0,-2.7867833E-2,7.7529436E-1,-4.121053E-2,9.0902254E-2,-3.0723414E-1,2.6968458E-1,5.490147E-2,-3.0847147E-2,1.1623087E0,-2.2172657E-1,-5.00149E-1,1.7898652E-1,2.8970558E-2,1.4821241E-2,-2.7709438E-2,-2.5938405E-3,-5.2923646E-2],"categories":[],"categories_nodes":[],"categories_segments":[],"categories_sizes":[],"default_left":[0,0,0,0,0,0,0,0,0,0,0,0,0,0,0,0,0,0,0,0,0,0,0,0,0,0,0],"id":17,"left_children":[1,-1,3,5,7,9,11,-1,13,15,-1,17,-1,-1,19,-1,-1,-1,21,23,25,-1,-1,-1,-1,-1,-1],"loss_changes":[2.0492203E1,0E0,2.2324158E1,8.238985E0,7.2816305E0,6.922678E0,3.2376442E0,0E0,3.434867E0,2.4919662E0,0E0,2.7426875E0,0E0,0E0,1.7058535E0,0E0,0E0,0E0,1.8899722E0,1.6409152E0,4.4184113E-1,0E0,0E0,0E0,0E0,0E0,0E0],"parents":[2147483647,0,0,2,2,3,3,4,4,5,5,6,6,8,8,9,9,11,11,14,14,18,18,19,19,20,20],"right_children":[2,-1,4,6,8,10,12,-1,14,16,-1,18,-1,-1,20,-1,-1,-1,22,24,26,-1,-1,-1,-1,-1,-1],"split_conditions":[3.49261E3,-5.453188E-2,5.91E0,1.3295E2,9.8E-1,3.92409E3,3.41E0,1.5976976E-1,1.58E0,4.3E0,-2.7867833E-2,1.6424E2,-4.121053E-2,9.0902254E-2,4.03144E3,2.6968458E-1,5.490147E-2,-3.0847147E-2,1.85E1,1.13E0,6.12E0,1.7898652E-1,2.8970558E-2,1.4821241E-2,-2.7709438E-2,-2.5938405E-3,-5.2923646E-2],"split_indices":[9,0,1,6,8,9,2,0,2,2,0,6,0,0,9,0,0,0,5,8,1,0,0,0,0,0,0],"split_type":[0,0,0,0,0,0,0,0,0,0,0,0,0,0,0,0,0,0,0,0,0,0,0,0,0,0,0],"sum_hessian":[7.491914E2,6.2400244E2,1.2518896E2,1.3511418E1,1.1167754E2,5.793492E0,7.7179265E0,1.1144991E0,1.1056304E2,4.773156E0,1.0203357E0,4.684219E0,3.0337076E0,1.4282225E0,1.0913482E2,3.4642296E0,1.3089266E0,1.2859862E0,3.398233E0,7.7107185E1,3.202763E1,1.3652194E0,2.0330136E0,9.81976E0,6.728743E1,1.9603225E0,3.0067308E1],"tree_param":{"num_deleted":"0","num_feature":"10","num_nodes":"27","size_leaf_vector":"1"}},{"base_weights":[3.881694E-1,-5.4517556E-2,2.1310124E0,3.2062513E-1,9.315522E-1,1.0644834E0,-4.277149E-1,7.873935E-1,1.3778131E0,-5.0093353E-2,1.8773442E-2,9.10662E-1,-2.3908141E-1,6.772979E-1,1.6620438E0,1.1522986E-1,3.359824E-2,-4.5009017E-2,1.3849029E-2,6.001774E-3,1.3595687E-1,9.776152E-2,2.0015226E-1],"categories":[],"categories_nodes":[],"categories_segments":[],"categories_sizes":[],"default_left":[0,0,0,0,0,0,0,0,0,0,0,0,0,0,0,0,0,0,0,0,0,0,0],"id":18,"left_children":[1,-1,3,-1,5,7,9,11,13,-1,-1,15,17,19,21,-1,-1,-1,-1,-1,-1,-1,-1],"loss_changes":[1.3425247E3,0E0,3.6818054E2,0E0,2.529055E1,9.810196E0,6.779492E-1,8.939529E0,1.0334946E1,0E0,0E0,8.187321E0,7.1422297E-1,7.626129E0,7.3972855E0,0E0,0E0,0E0,0E0,0E0,0E0,0E0,0E0],"parents":[2147483647,0,0,2,2,4,4,5,5,6,6,7,7,8,8,11,11,12,12,13,13,14,14],"right_children":[2,-1,4,-1,6,8,10,12,14,-1,-1,16,18,20,22,-1,-1,-1,-1,-1,-1,-1,-1],"split_conditions":[2.99992E3,-5.4517556E-2,3.50839E3,3.2062513E-1,4.26332E3,3.6E1,1.76E0,2.9246E2,1.407E2,-5.0093353E-2,1.8773442E-2,2.938E1,3.35E0,1.45E0,1.777E1,1.1522986E-1,3.359824E-2,-4.5009017E-2,1.3849029E-2,6.001774E-3,1.3595687E-1,9.776152E-2,2.0015226E-1],"split_indices":[9,0,9,0,9,4,8,6,6,0,0,4,2,8,7,0,0,0,0,0,0,0,0],"split_type":[0,0,0,0,0,0,0,0,0,0,0,0,0,0,0,0,0,0,0,0,0,0,0],"sum_hessian":[8.236048E2,5.368127E2,2.8679218E2,1.5034474E2,1.3644743E2,1.2448967E2,1.1957757E1,6.79297E1,5.6559963E1,1.0852704E1,1.1050534E0,6.074743E1,7.182278E0,1.7301525E1,3.925844E1,4.2058075E1,1.8689354E1,4.4841895E0,2.6980884E0,9.654575E0,7.646949E0,1.4302565E1,2.4955875E1],"tree_param":{"num_deleted":"0","num_feature":"10","num_nodes":"23","size_leaf_vector":"1"}},{"base_weights":[-5.176354E-1,-5.4532867E-2,-3.6917257E-1,-1.1780782E-1,-4.9093807E-1,-3.8623086E-1,4.4786298E-1,-5.02237E-1,2.585655E-4,-4.5357236E-1,6.873083E-2,3.0141938E-3,1.3378471E0,-2.829349E-1,-5.2501553E-1,1.4655498E-1,-5.2497048E-2,8.1096417E-1,-3.470292E-1,1.25136925E-2,1.7800625E-1,-4.782444E-2,3.7705332E-2,-2.4979952E-1,-5.386136E-2,-3.421616E-2,7.166781E-2,1.33581655E-2,1.1568487E-1,-4.6575237E-2,2.2305405E-2,1.8042123E-2,-4.134073E-2],"categories":[],"categories_nodes":[],"categories_segments":[],"categories_sizes":[],"default_left":[0,0,0,0,0,0,0,0,0,0,0,0,0,0,0,0,0,0,0,0,0,0,0,0,0,0,0,0,0,0,0,0,0],"id":19,"left_children":[1,-1,3,5,7,9,11,13,-1,15,-1,17,19,21,23,25,-1,27,29,-1,-1,-1,-1,31,-1,-1,-1,-1,-1,-1,-1,-1,-1],"loss_changes":[2.8717957E0,0E0,3.6335087E0,6.3486576E0,4.5258904E-1,2.3446794E0,5.361335E0,2.4670601E-1,0E0,1.2365341E0,0E0,3.1203284E0,2.1980753E0,1.4195714E0,1.2932968E-1,1.264768E0,0E0,6.266072E-1,6.2530607E-1,0E0,0E0,0E0,0E0,4.3952397E-1,0E0,0E0,0E0,0E0,0E0,0E0,0E0,0E0,0E0],"parents":[2147483647,0,0,2,2,3,3,4,4,5,5,6,6,7,7,9,9,11,11,12,12,13,13,14,14,15,15,17,17,18,18,23,23],"right_children":[2,-1,4,6,8,10,12,14,-1,16,-1,18,20,22,24,26,-1,28,30,-1,-1,-1,-1,32,-1,-1,-1,-1,-1,-1,-1,-1,-1],"split_conditions":[3.50839E3,-5.4532867E-2,3.72968E3,7.39E0,4.334E1,4.188E1,2.4343E2,1.018E1,2.585655E-4,1.062E1,6.873083E-2,7.4E-1,1.36E0,9.7E0,1.516E1,3.6E0,-5.2497048E-2,2.225E1,3.625E1,1.25136925E-2,1.7800625E-1,-4.782444E-2,3.7705332E-2,2.7E0,-5.386136E-2,-3.421616E-2,7.166781E-2,1.33581655E-2,1.1568487E-1,-4.6575237E-2,2.2305405E-2,1.8042123E-2,-4.134073E-2],"split_indices":[9,0,9,1,5,7,6,7,0,5,0,3,8,7,4,2,0,5,7,0,0,0,0,2,0,0,0,0,0,0,0,0,0],"split_type":[0,0,0,0,0,0,0,0,0,0,0,0,0,0,0,0,0,0,0,0,0,0,0,0,0,0,0,0,0,0,0,0,0],"sum_hessian":[7.464569E2,6.268545E2,1.19602394E2,3.9672523E1,7.992987E1,2.7120483E1,1.255204E1,7.812361E1,1.8062556E0,2.6063084E1,1.0574003E0,9.037921E0,3.514119E0,8.613879E0,6.9509735E1,2.6591654E0,2.340392E1,2.3339891E0,6.7039323E0,1.2818397E0,2.232279E0,6.859369E0,1.75451E0,4.184681E0,6.532506E1,1.6470984E0,1.012067E0,1.2574986E0,1.0764905E0,5.699904E0,1.0040282E0,1.1246225E0,3.0600586E0],"tree_param":{"num_deleted":"0","num_feature":"10","num_nodes":"33","size_leaf_vector":"1"}},{"base_weights":[-5.2029157E-1,-5.453388E-2,-3.8111094E-1,-1.9712193E-1,-5.380072E-2,-2.5824064E-1,9.399578E-2,-3.3824787E-1,7.2929966E-1,-4.843489E-1,-1.925907E-1,-3.0825568E-2,1.2684761E-1,-5.2420747E-2,2.1865567E-2,9.748263E-2,-2.9173661E-2],"categories":[],"categories_nodes":[],"categories_segments":[],"categories_sizes":[],"default_left":[0,0,0,0,0,0,0,0,0,0,0,0,0,0,0,0,0],"id":20,"left_children":[1,-1,3,5,-1,7,-1,9,11,13,15,-1,-1,-1,-1,-1,-1],"loss_changes":[2.3973694E0,0E0,3.2799816E0,4.104364E0,0E0,4.4749765E0,0E0,9.747553E-1,2.8119676E0,7.9820824E-1,3.3854604E0,0E0,0E0,0E0,0E0,0E0,0E0],"parents":[2147483647,0,0,2,2,3,3,5,5,7,7,8,8,9,9,10,10],"right_children":[2,-1,4,6,-1,8,-1,10,12,14,16,-1,-1,-1,-1,-1,-1],"split_conditions":[3.52963E3,-5.453388E-2,3.83129E3,5.302E1,-5.380072E-2,5E0,9.399578E-2,2.32E1,3E0,8.35E0,2.371E1,-3.0825568E-2,1.2684761E-1,-5.2420747E-2,2.1865567E-2,9.748263E-2,-2.9173661E-2],"split_indices":[9,0,9,4,0,2,0,7,0,1,7,0,0,0,0,0,0],"split_type":[0,0,0,0,0,0,0,0,0,0,0,0,0,0,0,0,0],"sum_hessian":[7.4631165E2,6.3001465E2,1.1629701E2,5.4565525E1,6.1731487E1,5.2515667E1,2.049857E0,4.9188095E1,3.327571E0,2.3395765E1,2.579233E1,1.2843456E0,2.0432253E0,2.2381145E1,1.0146205E0,1.3276273E0,2.4464703E1],"tree_param":{"num_deleted":"0","num_feature":"10","num_nodes":"17","size_leaf_vector":"1"}},{"base_weights":[-5.40245E-1,-5.4155756E-2,-1.791032E-1,-3.699971E-2,1.8289942E-2],"categories":[],"categories_nodes":[],"categories_segments":[],"categories_sizes":[],"default_left":[0,0,0,0,0],"id":21,"left_children":[1,-1,3,-1,-1],"loss_changes":[2.5665283E-1,0E0,3.5763758E-1,0E0,0E0],"parents":[2147483647,0,0,2,2],"right_children":[2,-1,4,-1,-1],"split_conditions":[4.485E1,-5.4155756E-2,1.36E0,-3.699971E-2,1.8289942E-2],"split_indices":[7,0,3,0,0],"split_type":[0,0,0,0,0],"sum_hessian":[7.451199E2,7.419238E2,3.196066E0,2.078128E0,1.1179378E0],"tree_param":{"num_deleted":"0","num_feature":"10","num_nodes":"5","size_leaf_vector":"1"}},{"base_weights":[8.3244747E-1,1.664026E0,-5.3901803E-1,-5.256451E-1,2.371928E-1,-1.5466483E-1,-5.4174986E-2,-5.391493E-2,1.06844895E-1,-3.5612997E-2,1.9800184E-2,7.1547985E-2,-3.56694E-2],"categories":[],"categories_nodes":[],"categories_segments":[],"categories_sizes":[],"default_left":[0,0,0,0,0,0,0,0,0,0,0,0,0],"id":22,"left_children":[1,3,5,7,-1,9,-1,-1,11,-1,-1,-1,-1],"loss_changes":[1.0895908E3,9.227781E2,2.953415E-1,1.3051682E0,0E0,3.510104E-1,0E0,0E0,1.3521068E0,0E0,0E0,0E0,0E0],"parents":[2147483647,0,0,1,1,2,2,3,3,5,5,8,8],"right_children":[2,4,6,8,-1,10,-1,-1,12,-1,-1,-1,-1],"split_conditions":[1.99934E3,8.0769E2,2.01967E3,7.8821E2,2.371928E-1,1.35E0,-5.4174986E-2,-5.391493E-2,1.634E1,-3.5612997E-2,1.9800184E-2,7.1547985E-2,-3.56694E-2],"split_indices":[9,9,9,9,0,8,0,0,4,0,0,0,0],"split_type":[0,0,0,0,0,0,0,0,0,0,0,0,0],"sum_hessian":[9.535917E2,5.9350854E2,3.6008313E2,1.4506213E2,4.484464E2,2.947866E0,3.5713525E2,1.4217415E2,2.8879771E0,1.8698634E0,1.0780027E0,1.0135938E0,1.8743833E0],"tree_param":{"num_deleted":"0","num_feature":"10","num_nodes":"13","size_leaf_vector":"1"}},{"base_weights":[-1.7678216E-2,-5.2708596E-1,1.68387E0,-5.419577E-2,3.3784965E-1,1.0372031E0,1.9944954E0,-3.1198438E-2,1.3217565E-1,1.118235E0,-5.187251E-2,1.868707E0,2.3948279E-1,6.405508E-2,-3.2061213E-1,-1.3562386E-1,1.1836498E0,-4.1008897E-2,6.453611E-2,1.8932707E0,9.247083E-3,-4.52251E-2,2.0556187E-2,-3.4907218E-2,2.1592567E-2,-2.9363943E-2,1.2207519E0,2.1317964E0,1.6849419E0,1.3852084E-1,7.269723E-2,2.261116E-1,8.456295E-2,1.740694E-1,-3.266058E-2],"categories":[],"categories_nodes":[],"categories_segments":[],"categories_sizes":[],"default_left":[0,0,0,0,0,0,0,0,0,0,0,0,0,0,0,0,0,0,0,0,0,0,0,0,0,0,0,0,0,0,0,0,0,0,0],"id":23,"left_children":[1,3,5,-1,7,9,11,13,-1,15,17,19,-1,-1,21,23,25,-1,-1,27,-1,-1,-1,-1,-1,-1,29,31,33,-1,-1,-1,-1,-1,-1],"loss_changes":[6.725004E2,7.8632812E0,3.3839355E1,0E0,3.9296002E0,5.360832E0,1.551117E0,1.9093018E0,0E0,4.751381E0,1.5426587E0,3.9966125E0,0E0,0E0,5.6340355E-1,3.5094914E-1,3.2798233E0,0E0,0E0,1.0918579E0,0E0,0E0,0E0,0E0,0E0,0E0,3.230873E0,4.76976E0,6.7460785E0,0E0,0E0,0E0,0E0,0E0,0E0],"parents":[2147483647,0,0,1,1,2,2,4,4,5,5,6,6,7,7,9,9,10,10,11,11,14,14,15,15,16,16,19,19,26,26,27,27,28,28],"right_children":[2,4,6,-1,8,10,12,14,-1,16,18,20,-1,-1,22,24,26,-1,-1,28,-1,-1,-1,-1,-1,-1,30,32,34,-1,-1,-1,-1,-1,-1],"split_conditions":[3.54458E3,3.49261E3,3.79346E3,-5.419577E-2,2.09E0,3.869E1,4.26332E3,4.6E-1,1.3217565E-1,7.522E1,2.78E2,1.79E0,2.3948279E-1,6.405508E-2,7.67E0,1.27E0,1.58E0,-4.1008897E-2,6.453611E-2,1.4989E2,9.247083E-3,-4.52251E-2,2.0556187E-2,-3.4907218E-2,2.1592567E-2,-2.9363943E-2,4E0,1.66E0,8.41E0,1.3852084E-1,7.269723E-2,2.261116E-1,8.456295E-2,1.740694E-1,-3.266058E-2],"split_indices":[9,9,9,0,3,7,9,3,0,6,6,8,0,0,1,3,2,0,0,6,0,0,0,0,0,0,0,8,1,0,0,0,0,0,0],"split_type":[0,0,0,0,0,0,0,0,0,0,0,0,0,0,0,0,0,0,0,0,0,0,0,0,0,0,0,0,0,0,0,0,0,0,0],"sum_hessian":[7.7383496E2,5.9607336E2,1.777616E2,5.863648E2,9.708531E0,5.9088646E1,1.1867296E2,7.7644854E0,1.9440458E0,5.497173E1,4.116914E0,9.461261E1,2.4060349E1,1.9726223E0,5.791863E0,2.6724966E0,5.2299232E1,2.9917052E0,1.1252087E0,9.325706E1,1.355554E0,4.745196E0,1.0466673E0,1.6672493E0,1.0052474E0,1.1119155E0,5.1187317E1,3.917307E1,5.4083984E1,3.70442E1,1.4143118E1,3.4905426E1,4.267646E0,5.2756435E1,1.3275505E0],"tree_param":{"num_deleted":"0","num_feature":"10","num_nodes":"35","size_leaf_vector":"1"}},{"base_weights":[9.3437976E-1,1.2781583E0,-3.8948178E-1,2.650516E-1,2.3707823E-1,-5.245621E-1,-2.9272714E-1,1.0281584E0,-5.401255E-2,-1.8189557E-1,-5.3618666E-2,-1.267631E-1,-5.1374656E-1,-5.3729992E-2,2.3633118E-1,-3.743262E-2,2.0118017E-2,-3.230581E-1,4.0262547E-1,7.5200098E-3,-5.3277224E-2,6.956011E-2,-4.1388777E-1,-1.1202813E-1,8.9463943E-1,-3.6354057E-2,1.2288208E-1,2.3638174E-2,-4.5631673E-2,5.5406626E-2,-3.5955433E-2,-3.509914E-2,1.1977973E-1],"categories":[],"categories_nodes":[],"categories_segments":[],"categories_sizes":[],"default_left":[0,0,0,0,0,0,0,0,0,0,0,0,0,0,0,0,0,0,0,0,0,0,0,0,0,0,0,0,0,0,0,0,0],"id":24,"left_children":[1,3,5,7,-1,9,11,13,-1,15,-1,17,19,-1,-1,-1,-1,21,23,-1,-1,25,27,29,31,-1,-1,-1,-1,-1,-1,-1,-1],"loss_changes":[4.4586182E2,8.595537E2,2.4930038E0,2.4899455E2,0E0,2.3407173E-1,4.345748E0,4.358828E2,0E0,3.8821572E-1,0E0,7.4047985E0,6.1424637E-1,0E0,0E0,0E0,0E0,1.8697786E0,5.0079384E0,0E0,0E0,5.7462497E0,1.268559E0,1.9075783E0,4.2041817E0,0E0,0E0,0E0,0E0,0E0,0E0,0E0,0E0],"parents":[2147483647,0,0,1,1,2,2,3,3,5,5,6,6,7,7,9,9,11,11,12,12,17,17,18,18,21,21,22,22,23,23,24,24],"right_children":[2,4,6,8,-1,10,12,14,-1,16,-1,18,20,-1,-1,-1,-1,22,24,-1,-1,26,28,30,32,-1,-1,-1,-1,-1,-1,-1,-1],"split_conditions":[2.99992E3,1.99934E3,3.49261E3,8.0769E2,2.3707823E-1,3.0196E3,3.88986E3,5.0008E2,-5.401255E-2,1.45E0,-5.3618666E-2,1.54E0,1.8E-1,-5.3729992E-2,2.3633118E-1,-3.743262E-2,2.0118017E-2,1.275E1,2.65E1,7.5200098E-3,-5.3277224E-2,7.55E0,1.549E1,3.59959E3,6.4E-1,-3.6354057E-2,1.2288208E-1,2.3638174E-2,-4.5631673E-2,5.5406626E-2,-3.5955433E-2,-3.509914E-2,1.1977973E-1],"split_indices":[9,9,9,9,0,9,9,9,0,8,0,8,3,0,0,0,0,7,7,0,0,1,4,9,3,0,0,0,0,0,0,0,0],"split_type":[0,0,0,0,0,0,0,0,0,0,0,0,0,0,0,0,0,0,0,0,0,0,0,0,0,0,0,0,0,0,0,0,0],"sum_hessian":[9.775741E2,7.7607776E2,2.0149629E2,4.033369E2,3.7274088E2,8.224771E1,1.1924859E2,2.0693617E2,1.9640076E2,3.244816E0,7.90029E1,6.900563E1,5.0242954E1,9.55279E1,1.11408264E2,2.1750584E0,1.0697577E0,5.062416E1,1.8381466E1,1.4798893E0,4.8763065E1,9.555209E0,4.1068954E1,9.361506E0,9.01996E0,7.4560328E0,2.0991764E0,2.2355473E0,3.8833405E1,2.2007802E0,7.160726E0,1.7346709E0,7.28529E0],"tree_param":{"num_deleted":"0","num_feature":"10","num_nodes":"33","size_leaf_vector":"1"}},{"base_weights":[-5.394753E-1],"categories":[],"categories_nodes":[],"categories_segments":[],"categories_sizes":[],"default_left":[0],"id":25,"left_children":[-1],"loss_changes":[0E0],"parents":[2147483647],"right_children":[-1],"split_conditions":[-5.3947534E-2],"split_indices":[0],"split_type":[0],"sum_hessian":[7.012101E2],"tree_param":{"num_deleted":"0","num_feature":"10","num_nodes":"1","size_leaf_vector":"1"}},{"base_weights":[-5.324466E-1,-5.4196723E-2,-4.7850636E-1,-1.0537337E-1,-5.104327E-1,-4.5230508E-2,2.846055E-1,1.6630294E-2,-5.196365E-1,7.894166E-1,-3.6813736E-2,-5.2836454E-1,-3.2325017E-1,1.2728562E-2,1.1298026E-1,-5.3825494E-2,-3.2185724E-1,2.1127522E-2,-4.5275506E-2,2.1230338E-2,-4.5195304E-2],"categories":[],"categories_nodes":[],"categories_segments":[],"categories_sizes":[],"default_left":[0,0,0,0,0,0,0,0,0,0,0,0,0,0,0,0,0,0,0,0,0],"id":26,"left_children":[1,-1,3,5,7,-1,9,-1,11,13,-1,15,17,-1,-1,-1,19,-1,-1,-1,-1],"loss_changes":[1.0169983E-1,0E0,1.3044453E0,1.5150619E0,7.389717E-1,0E0,2.0824447E0,0E0,6.788254E-3,6.189728E-1,0E0,2.614212E-2,5.791494E-1,0E0,0E0,0E0,5.7885504E-1,0E0,0E0,0E0,0E0],"parents":[2147483647,0,0,2,2,3,3,4,4,6,6,8,8,9,9,11,11,12,12,16,16],"right_children":[2,-1,4,6,8,-1,10,-1,12,14,-1,16,18,-1,-1,-1,20,-1,-1,-1,-1],"split_conditions":[3.50839E3,-5.4196723E-2,3.56449E3,7.08E0,1.307E1,-4.5230508E-2,3.32E0,1.6630294E-2,4.079E1,2.935E1,-3.6813736E-2,5.105E1,2.39E0,1.2728562E-2,1.1298026E-1,-5.3825494E-2,1.15E0,2.1127522E-2,-4.5275506E-2,2.1230338E-2,-4.5195304E-2],"split_indices":[9,0,9,1,4,0,2,0,7,7,0,4,2,0,0,0,8,0,0,0,0],"split_type":[0,0,0,0,0,0,0,0,0,0,0,0,0,0,0,0,0,0,0,0,0],"sum_hessian":[7.0205804E2,5.890434E2,1.1301469E2,9.246665E0,1.0376802E2,4.80883E0,4.4378347E0,1.163314E0,1.02604706E2,2.3844168E0,2.053418E0,9.662019E1,5.9845157E0,1.2760819E0,1.108335E0,9.067114E1,5.949052E0,1.0440089E0,4.940507E0,1.0413735E0,4.907678E0],"tree_param":{"num_deleted":"0","num_feature":"10","num_nodes":"21","size_leaf_vector":"1"}},{"base_weights":[2.300098E-1,2.3717962E-1,-5.4220803E-2],"categories":[],"categories_nodes":[],"categories_segments":[],"categories_sizes":[],"default_left":[0,0,0],"id":27,"left_children":[1,-1,-1],"loss_changes":[1.3640936E3,0E0,0E0],"parents":[2147483647,0,0],"right_children":[2,-1,-1],"split_conditions":[5.0008E2,2.3717962E-1,-5.4220803E-2],"split_indices":[9,0,0],"split_type":[0,0,0],"sum_hessian":[8.229837E2,2.1754366E2,6.0544006E2],"tree_param":{"num_deleted":"0","num_feature":"10","num_nodes":"3","size_leaf_vector":"1"}},{"base_weights":[-4.6438107E-1,-5.419577E-2,-9.361528E-2,9.6174216E-1,-2.4130632E-1,1.5936644E0,3.0445388E-1,1.4394407E-1,-2.74345E-1,1.8667941E0,1.2782561E-2,7.25476E-1,-4.0637363E-2,8.496364E-2,-2.9833287E-1,2.0785318E-1,5.6933414E-2,-3.0277586E-2,1.0656912E0,-2.1384084E-1,-4.94912E-1,1.5988684E-1,2.7570827E-2,1.5523046E-2,-2.699436E-2,-1.9718336E-3,-5.253716E-2],"categories":[],"categories_nodes":[],"categories_segments":[],"categories_sizes":[],"default_left":[0,0,0,0,0,0,0,0,0,0,0,0,0,0,0,0,0,0,0,0,0,0,0,0,0,0,0],"id":28,"left_children":[1,-1,3,5,7,9,11,-1,13,15,-1,17,-1,-1,19,-1,-1,-1,21,23,25,-1,-1,-1,-1,-1,-1],"loss_changes":[2.038556E1,0E0,1.9582758E1,5.928544E0,6.486911E0,2.8187752E0,2.9299335E0,0E0,3.1770134E0,5.648384E-1,0E0,2.3827267E0,0E0,0E0,1.6698179E0,0E0,0E0,0E0,1.5160913E0,1.6265366E0,4.4378424E-1,0E0,0E0,0E0,0E0,0E0,0E0],"parents":[2147483647,0,0,2,2,3,3,4,4,5,5,6,6,8,8,9,9,11,11,14,14,18,18,19,19,20,20],"right_children":[2,-1,4,6,8,10,12,-1,14,16,-1,18,-1,-1,20,-1,-1,-1,22,24,26,-1,-1,-1,-1,-1,-1],"split_conditions":[3.49261E3,-5.419577E-2,5.91E0,1.3295E2,9.8E-1,3.229E1,3.41E0,1.4394407E-1,1.58E0,3.87508E3,1.2782561E-2,1.6424E2,-4.0637363E-2,8.496364E-2,4.03144E3,2.0785318E-1,5.6933414E-2,-3.0277586E-2,1.85E1,2.09E0,6.12E0,1.5988684E-1,2.7570827E-2,1.5523046E-2,-2.699436E-2,-1.9718336E-3,-5.253716E-2],"split_indices":[9,0,1,6,8,7,2,0,2,9,0,6,0,0,9,0,0,0,5,2,1,0,0,0,0,0,0],"split_type":[0,0,0,0,0,0,0,0,0,0,0,0,0,0,0,0,0,0,0,0,0,0,0,0,0,0,0],"sum_hessian":[7.095136E2,5.863648E2,1.2314882E2,1.4441584E1,1.0870724E2,6.6365485E0,7.805035E0,1.2750382E0,1.074322E2,5.3636136E0,1.2729349E0,4.8887987E0,2.9162364E0,1.5256689E0,1.0590653E2,4.093567E0,1.2700466E0,1.2427653E0,3.6460335E0,7.553046E1,3.037607E1,1.5655092E0,2.0805242E0,9.733281E0,6.579718E1,1.9290313E0,2.8447039E1],"tree_param":{"num_deleted":"0","num_feature":"10","num_nodes":"27","size_leaf_vector":"1"}},{"base_weights":[3.5595894E-1,-5.4180395E-2,1.6912682E0,2.3593791E-1,8.1481683E-1,9.2042166E-1,-4.196749E-1,2.1205333E-1,1.007234E0,1.8845733E-2,-4.958686E-2,5.105427E-1,-4.5837134E-2,1.7516701E-1,1.0847558E0,-3.2442246E-2,1.3158679E-1,-1.1299164E-2,1.2877169E-1,-4.090219E-2,1.1255204E-1],"categories":[],"categories_nodes":[],"categories_segments":[],"categories_sizes":[],"default_left":[0,0,0,0,0,0,0,0,0,0,0,0,0,0,0,0,0,0,0,0,0],"id":29,"left_children":[1,-1,3,-1,5,7,9,11,13,-1,-1,15,-1,17,19,-1,-1,-1,-1,-1,-1],"loss_changes":[1.0126287E3,0E0,1.9689722E2,0E0,1.9732292E1,8.212128E0,6.671314E-1,3.4808645E0,7.6657867E0,0E0,0E0,8.293968E0,0E0,3.85549E0,7.232727E0,0E0,0E0,0E0,0E0,0E0,0E0],"parents":[2147483647,0,0,2,2,4,4,5,5,6,6,7,7,8,8,11,11,13,13,14,14],"right_children":[2,-1,4,-1,6,8,10,12,14,-1,-1,16,-1,18,20,-1,-1,-1,-1,-1,-1],"split_conditions":[2.99992E3,-5.4180395E-2,3.50839E3,2.3593791E-1,4.26332E3,1.711E1,1.78E0,3.271E1,5.82E0,1.8845733E-2,-4.958686E-2,2.215E1,-4.5837134E-2,3.28E1,1.62E0,-3.2442246E-2,1.3158679E-1,-1.1299164E-2,1.2877169E-1,-4.090219E-2,1.1255204E-1],"split_indices":[9,0,9,0,9,4,2,5,1,0,0,5,0,5,2,0,0,0,0,0,0],"split_type":[0,0,0,0,0,0,0,0,0,0,0,0,0,0,0,0,0,0,0,0,0],"sum_hessian":[8.42944E2,5.0441022E2,3.3853375E2,1.911386E2,1.4739516E2,1.360142E2,1.1380947E1,1.5224935E1,1.2078927E2,1.1031184E0,1.0277828E1,1.0699664E1,4.525271E0,1.0572347E1,1.1021693E2,5.5463424E0,5.1533213E0,9.110975E0,1.4613711E0,2.6878939E0,1.0752903E2],"tree_param":{"num_deleted":"0","num_feature":"10","num_nodes":"21","size_leaf_vector":"1"}},{"base_weights":[-5.12844E-1,-5.4196723E-2,-3.604022E-1,-1.1092955E-1,-4.8543528E-1,-3.79107E-1,4.238906E-1,-4.9718717E-1,2.6269545E-4,-4.4803274E-1,6.4362176E-2,5.865129E-3,1.1945529E0,-2.7343845E-1,-5.209817E-1,1.4182906E-1,-5.2168842E-2,7.542383E-1,-3.4058934E-1,1.5990996E0,9.544151E-3,-4.730838E-2,3.6454093E-2,-2.4020627E-1,-5.3524416E-2,-3.3726845E-2,6.71753E-2,1.09929E-1,1.1137227E-2,-4.6140794E-2,2.1627618E-2,1.5244025E-2,2.2754574E-1,-4.0819414E-2,1.9127822E-2],"categories":[],"categories_nodes":[],"categories_segments":[],"categories_sizes":[],"default_left":[0,0,0,0,0,0,0,0,0,0,0,0,0,0,0,0,0,0,0,0,0,0,0,0,0,0,0,0,0,0,0,0,0,0,0],"id":30,"left_children":[1,-1,3,5,7,9,11,13,-1,15,-1,17,19,21,23,25,-1,27,29,31,-1,-1,-1,33,-1,-1,-1,-1,-1,-1,-1,-1,-1,-1,-1],"loss_changes":[2.9351654E0,0E0,3.5672283E0,5.9054794E0,4.4315147E-1,2.2060986E0,4.454502E0,2.5806427E-1,0E0,1.2069392E0,0E0,2.8454025E0,2.0106964E0,1.3615582E0,1.3930702E-1,1.161106E0,0E0,6.473721E-1,6.0527915E-1,3.0707483E0,0E0,0E0,0E0,4.4396663E-1,0E0,0E0,0E0,0E0,0E0,0E0,0E0,0E0,0E0,0E0,0E0],"parents":[2147483647,0,0,2,2,3,3,4,4,5,5,6,6,7,7,9,9,11,11,12,12,13,13,14,14,15,15,17,17,18,18,19,19,23,23],"right_children":[2,-1,4,6,8,10,12,14,-1,16,-1,18,20,22,24,26,-1,28,30,32,-1,-1,-1,34,-1,-1,-1,-1,-1,-1,-1,-1,-1,-1,-1],"split_conditions":[3.50839E3,-5.4196723E-2,3.72968E3,7.39E0,4.334E1,4.188E1,2.4343E2,1.018E1,2.6269545E-4,1.062E1,6.4362176E-2,7.4E-1,2.489E1,9.7E0,1.516E1,3.6E0,-5.2168842E-2,7.67E0,3.625E1,1.725E1,9.544151E-3,-4.730838E-2,3.6454093E-2,1.55E0,-5.3524416E-2,-3.3726845E-2,6.71753E-2,1.09929E-1,1.1137227E-2,-4.6140794E-2,2.1627618E-2,1.5244025E-2,2.2754574E-1,-4.0819414E-2,1.9127822E-2],"split_indices":[9,0,9,1,5,7,6,7,0,5,0,3,7,7,4,2,0,1,7,7,0,0,0,8,0,0,0,0,0,0,0,0,0,0,0],"split_type":[0,0,0,0,0,0,0,0,0,0,0,0,0,0,0,0,0,0,0,0,0,0,0,0,0,0,0,0,0,0,0,0,0,0,0],"sum_hessian":[7.041321E2,5.890434E2,1.150887E2,3.9053764E1,7.6034935E1,2.6204876E1,1.2848887E1,7.4228905E1,1.8060274E0,2.5076777E1,1.1280987E0,8.983587E0,3.8653002E0,8.33582E0,6.589308E1,2.680974E0,2.2395803E1,2.4703615E0,6.513226E0,2.4928584E0,1.3724415E0,6.545863E0,1.789957E0,4.0478344E0,6.184525E1,1.5989431E0,1.082031E0,1.1455283E0,1.3248333E0,5.4928966E0,1.0203296E0,1.1845698E0,1.3082887E0,2.9523764E0,1.0954578E0],"tree_param":{"num_deleted":"0","num_feature":"10","num_nodes":"35","size_leaf_vector":"1"}},{"base_weights":[-5.1563114E-1,-5.4198265E-2,-3.7253025E-1,-1.8951187E-1,-5.3447526E-2,-2.6295403E-1,7.0723975E-1,-3.4614938E-1,6.7299163E-1,1.7299172E-1,-3.6489587E-2,-4.2371914E-1,-6.489683E-2,-3.0476525E-2,1.144527E0,-4.9916625E-2,1.8215735E-2,-4.576634E-2,3.2677725E-2,1.6649376E-1,1.4409763E-2],"categories":[],"categories_nodes":[],"categories_segments":[],"categories_sizes":[],"default_left":[0,0,0,0,0,0,0,0,0,0,0,0,0,0,0,0,0,0,0,0,0],"id":31,"left_children":[1,-1,3,5,-1,7,9,11,13,-1,-1,15,17,-1,19,-1,-1,-1,-1,-1,-1],"loss_changes":[2.4561615E0,0E0,3.2424173E0,3.7760248E0,0E0,4.2129736E0,5.4527884E0,1.011004E0,2.4291406E0,0E0,0E0,1.7881999E0,1.9142503E0,0E0,1.4544411E0,0E0,0E0,0E0,0E0,0E0,0E0],"parents":[2147483647,0,0,2,2,3,3,5,5,6,6,7,7,8,8,11,11,12,12,14,14],"right_children":[2,-1,4,6,-1,8,10,12,14,-1,-1,16,18,-1,20,-1,-1,-1,-1,-1,-1],"split_conditions":[3.52963E3,-5.4198265E-2,3.83129E3,5.078E1,-5.3447526E-2,5E0,1.19E0,3.316E1,3E0,1.7299172E-1,-3.6489587E-2,7.84E0,2.744E1,-3.0476525E-2,3.213E1,-4.9916625E-2,1.8215735E-2,-4.576634E-2,3.2677725E-2,1.6649376E-1,1.4409763E-2],"split_indices":[9,0,9,4,0,2,8,7,0,0,0,1,5,0,4,0,0,0,0,0,0],"split_type":[0,0,0,0,0,0,0,0,0,0,0,0,0,0,0,0,0,0,0,0,0],"sum_hessian":[7.038847E2,5.9206995E2,1.1181474E2,5.3510887E1,5.8303856E1,5.0113464E1,3.3974218E0,4.660128E1,3.5121846E0,1.4248124E0,1.9726095E0,3.6130035E1,1.0471247E1,1.2577789E0,2.2544057E0,3.228576E1,3.8442755E0,5.144209E0,5.3270373E0,1.046044E0,1.2083617E0],"tree_param":{"num_deleted":"0","num_feature":"10","num_nodes":"21","size_leaf_vector":"1"}},{"base_weights":[-5.3665876E-1,-5.3804528E-2,-1.6946325E-1,-3.6524404E-2,1.9485576E-2],"categories":[],"categories_nodes":[],"categories_segments":[],"categories_sizes":[],"default_left":[0,0,0,0,0],"id":32,"left_children":[1,-1,3,-1,-1],"loss_changes":[2.6651E-1,0E0,3.6380142E-1,0E0,0E0],"parents":[2147483647,0,0,2,2],"right_children":[2,-1,4,-1,-1],"split_conditions":[4.485E1,-5.3804528E-2,2.5083E2,-3.6524404E-2,1.9485576E-2],"split_indices":[7,0,6,0,0],"split_type":[0,0,0,0,0],"sum_hessian":[7.0157855E2,6.984759E2,3.102695E0,2.016508E0,1.0861869E0],"tree_param":{"num_deleted":"0","num_feature":"10","num_nodes":"5","size_leaf_vector":"1"}},{"base_weights":[7.4153197E-1,1.3984406E0,-5.358344E-1,-5.2157545E-1,1.8992111E-1,-1.4483628E-1,-5.3872265E-2,-5.3587463E-2,1.1402941E-1,2.0623256E-2,-3.505521E-2,6.871502E-2,-3.4936182E-2],"categories":[],"categories_nodes":[],"categories_segments":[],"categories_sizes":[],"default_left":[0,0,0,0,0,0,0,0,0,0,0,0,0],"id":33,"left_children":[1,3,5,7,-1,9,-1,-1,11,-1,-1,-1,-1],"loss_changes":[8.3959216E2,6.3600415E2,3.0620575E-1,1.309948E0,0E0,3.5125065E-1,0E0,0E0,1.2619511E0,0E0,0E0,0E0,0E0],"parents":[2147483647,0,0,1,1,2,2,3,3,5,5,8,8],"right_children":[2,4,6,8,-1,10,-1,-1,12,-1,-1,-1,-1],"split_conditions":[1.99934E3,8.0769E2,2.01967E3,7.8821E2,1.8992111E-1,2.23E0,-5.3872265E-2,-5.3587463E-2,1.634E1,2.0623256E-2,-3.505521E-2,6.871502E-2,-3.4936182E-2],"split_indices":[9,9,9,9,0,2,0,0,4,0,0,0,0],"split_type":[0,0,0,0,0,0,0,0,0,0,0,0,0],"sum_hessian":[9.9867804E2,6.5944946E2,3.3922858E2,1.3640689E2,5.230426E2,2.862557E0,3.36366E2,1.3355911E2,2.8477688E0,1.0567039E0,1.805853E0,1.0572691E0,1.7904997E0],"tree_param":{"num_deleted":"0","num_feature":"10","num_nodes":"13","size_leaf_vector":"1"}},{"base_weights":[-1.4513767E-2,-5.231266E-1,1.3964925E0,-5.3883232E-2,3.210017E-1,8.936587E-1,1.6254044E0,-2.929734E-2,1.1887522E-1,1.2513639E0,6.740145E-1,1.4907566E-2,1.6365063E0,-3.1847692E-1,6.303137E-2,1.4210379E0,6.2551156E-2,4.1064835E-1,1.4154718E0,1.5670795E-2,1.6475042E0,-4.509736E-2,2.044579E-2,1.5231973E0,-2.8505636E-2,-3.7334684E-2,5.9567507E-2,-8.878041E-2,6.424461E-1,1.7049296E0,2.2427224E-1,1.6572826E0,1.904084E-2,3.1207604E-2,1.7226072E-1,3.400087E-2,-4.8696816E-2,9.014886E-2,-6.243295E-3,1.958835E-1,1.2733415E-2,-3.0563613E-2,6.746116E-2,1.6746153E-1,8.060954E-2],"categories":[],"categories_nodes":[],"categories_segments":[],"categories_sizes":[],"default_left":[0,0,0,0,0,0,0,0,0,0,0,0,0,0,0,0,0,0,0,0,0,0,0,0,0,0,0,0,0,0,0,0,0,0,0,0,0,0,0,0,0,0,0,0,0],"id":34,"left_children":[1,3,5,-1,7,9,11,13,-1,15,17,-1,19,21,-1,23,25,27,29,-1,31,-1,-1,33,-1,-1,-1,35,37,39,41,43,-1,-1,-1,-1,-1,-1,-1,-1,-1,-1,-1,-1,-1],"loss_changes":[5.4820294E2,7.6166687E0,2.1844238E1,0E0,3.3427663E0,4.3056717E0,2.0155945E0,1.8656973E0,0E0,4.7047997E0,7.770996E0,0E0,1.9670715E0,5.586879E-1,0E0,4.0509377E0,1.1552669E0,3.8738494E0,3.3421497E0,0E0,1.6166992E0,0E0,0E0,4.2288895E0,0E0,0E0,0E0,2.100042E0,4.1901855E0,3.1708488E0,9.849021E-1,6.3565063E-1,0E0,0E0,0E0,0E0,0E0,0E0,0E0,0E0,0E0,0E0,0E0,0E0,0E0],"parents":[2147483647,0,0,1,1,2,2,4,4,5,5,6,6,7,7,9,9,10,10,12,12,13,13,15,15,16,16,17,17,18,18,20,20,23,23,27,27,28,28,29,29,30,30,31,31],"right_children":[2,4,6,-1,8,10,12,14,-1,16,18,-1,20,22,-1,24,26,28,30,-1,32,-1,-1,34,-1,-1,-1,36,38,40,42,44,-1,-1,-1,-1,-1,-1,-1,-1,-1,-1,-1,-1,-1],"split_conditions":[3.54458E3,3.49261E3,3.79346E3,-5.3883232E-2,2.09E0,1.777E1,5.52E0,2.2161E2,1.1887522E-1,2.805E2,2.5083E2,1.4907566E-2,1.4E-1,7.55E0,6.303137E-2,4.877E1,1.35E0,2.64E1,7.22E0,1.5670795E-2,4.385E1,-4.509736E-2,2.044579E-2,5.91E0,-2.8505636E-2,-3.7334684E-2,5.9567507E-2,2.145E1,1.54E0,3.822E1,2.489E1,1.8E0,1.904084E-2,3.1207604E-2,1.7226072E-1,3.400087E-2,-4.8696816E-2,9.014886E-2,-6.243295E-3,1.958835E-1,1.2733415E-2,-3.0563613E-2,6.746116E-2,1.6746153E-1,8.060954E-2],"split_indices":[9,9,9,0,3,7,1,6,0,6,6,0,3,1,0,4,8,7,1,0,5,0,0,1,0,0,0,7,8,7,7,8,0,0,0,0,0,0,0,0,0,0,0,0,0],"split_type":[0,0,0,0,0,0,0,0,0,0,0,0,0,0,0,0,0,0,0,0,0,0,0,0,0,0,0,0,0,0,0,0,0,0,0,0,0,0,0,0,0,0,0,0,0],"sum_hessian":[7.6186206E2,5.6046533E2,2.013967E2,5.5058295E2,9.882375E0,6.4537E1,1.368597E2,7.728658E0,2.1537163E0,2.2765175E1,4.1771824E1,1.1291901E0,1.357305E2,5.7326055E0,1.9960526E0,1.9750877E1,3.014299E0,3.1969925E1,9.801899E0,1.113801E0,1.346167E2,4.6835413E0,1.0490645E0,1.8736174E1,1.0147026E0,1.8232528E0,1.1910461E0,1.0330006E1,2.1639917E1,7.538738E0,2.2631617E0,1.3358286E2,1.0338414E0,3.011393E0,1.5724781E1,5.0442295E0,5.2857766E0,1.5620479E1,6.019439E0,6.2854676E0,1.25327E0,1.1873469E0,1.0758148E0,1.2996892E2,3.6139498E0],"tree_param":{"num_deleted":"0","num_feature":"10","num_nodes":"45","size_leaf_vector":"1"}},{"base_weights":[8.26355E-1,1.1040932E0,-3.808247E-1,2.471426E-1,1.8983944E-1,-5.2048E-1,-2.8360364E-1,9.0448195E-1,-5.368943E-2,-1.7177662E-1,-5.3276684E-2,-1.2063609E-1,-5.0938565E-1,-5.3391825E-2,1.8934971E-1,-3.685644E-2,2.0952683E-2,-3.148951E-1,3.736224E-1,7.756432E-3,-5.2937984E-2,-4.0822384E-1,7.800554E-2,5.8050873E-3,9.928286E-1,-4.533266E-2,3.40192E-2,9.553565E-2,-3.445272E-2,-4.7697026E-2,5.042795E-2,-3.1197403E-2,1.3239595E-1],"categories":[],"categories_nodes":[],"categories_segments":[],"categories_sizes":[],"default_left":[0,0,0,0,0,0,0,0,0,0,0,0,0,0,0,0,0,0,0,0,0,0,0,0,0,0,0,0,0,0,0,0,0],"id":35,"left_children":[1,3,5,7,-1,9,11,13,-1,15,-1,17,19,-1,-1,-1,-1,21,23,-1,-1,25,27,29,31,-1,-1,-1,-1,-1,-1,-1,-1],"loss_changes":[3.46732E2,5.712759E2,2.4855556E0,2.093159E2,0E0,2.4438667E-1,4.2265387E0,3.150926E2,0E0,3.8819715E-1,0E0,6.742031E0,6.107416E-1,0E0,0E0,0E0,0E0,1.8678732E0,4.531869E0,0E0,0E0,1.5253754E0,4.203167E0,3.4904525E0,3.6183276E0,0E0,0E0,0E0,0E0,0E0,0E0,0E0,0E0],"parents":[2147483647,0,0,1,1,2,2,3,3,5,5,6,6,7,7,9,9,11,11,12,12,17,17,18,18,21,21,22,22,23,23,24,24],"right_children":[2,4,6,8,-1,10,12,14,-1,16,-1,18,20,-1,-1,-1,-1,22,24,-1,-1,26,28,30,32,-1,-1,-1,-1,-1,-1,-1,-1],"split_conditions":[2.99992E3,1.99934E3,3.49261E3,8.0769E2,1.8983944E-1,3.0196E3,3.88986E3,5.0008E2,-5.368943E-2,3.072E1,-5.3276684E-2,1.54E0,1.8E-1,-5.3391825E-2,1.8934971E-1,-3.685644E-2,2.0952683E-2,4.606E1,7.53E0,7.756432E-3,-5.2937984E-2,2.44E0,1.246E1,3.429E1,7E-1,-4.533266E-2,3.40192E-2,9.553565E-2,-3.445272E-2,-4.7697026E-2,5.042795E-2,-3.1197403E-2,1.3239595E-1],"split_indices":[9,9,9,9,0,9,9,9,0,5,0,8,3,0,0,0,0,4,1,0,0,3,7,4,3,0,0,0,0,0,0,0,0],"split_type":[0,0,0,0,0,0,0,0,0,0,0,0,0,0,0,0,0,0,0,0,0,0,0,0,0,0,0,0,0,0,0,0,0],"sum_hessian":[1.0319026E3,8.389655E2,1.9293706E2,4.0419806E2,4.347675E2,7.740025E1,1.15536804E2,2.1978004E2,1.84418E2,3.1443272E0,7.425593E1,6.7993774E1,4.754303E1,8.973367E1,1.3004637E2,2.096005E0,1.0483224E0,4.9070454E1,1.8923326E1,1.4713291E0,4.60717E1,3.9620167E1,9.450287E0,1.250472E1,6.418606E0,3.7740074E1,1.8800926E0,2.661955E0,6.7883315E0,6.3743067E0,6.130413E0,1.3109064E0,5.1076994E0],"tree_param":{"num_deleted":"0","num_feature":"10","num_nodes":"33","size_leaf_vector":"1"}},{"base_weights":[-5.3625405E-1],"categories":[],"categories_nodes":[],"categories_segments":[],"categories_sizes":[],"default_left":[0],"id":36,"left_children":[-1],"loss_changes":[0E0],"parents":[2147483647],"right_children":[-1],"split_conditions":[-5.3625405E-2],"split_indices":[0],"split_type":[0],"sum_hessian":[6.595727E2],"tree_param":{"num_deleted":"0","num_feature":"10","num_nodes":"1","size_leaf_vector":"1"}},{"base_weights":[-5.288385E-1,-5.3884137E-2,-4.730197E-1,-1.01197876E-1,-5.0615907E-1,-4.481314E-2,2.7323785E-1,1.6060067E-2,-5.1577765E-1,7.3769206E-1,-3.632913E-2,-5.24897E-1,-3.1499508E-1,6.1881836E-3,1.21673E-1,-5.35281E-2,-3.1180313E-1,-4.4805452E-2,2.1746239E-2,2.2637725E-2,-4.4667132E-2],"categories":[],"categories_nodes":[],"categories_segments":[],"categories_sizes":[],"default_left":[0,0,0,0,0,0,0,0,0,0,0,0,0,0,0,0,0,0,0,0,0],"id":37,"left_children":[1,-1,3,5,7,-1,9,-1,11,13,-1,15,17,-1,-1,-1,19,-1,-1,-1,-1],"loss_changes":[1.146698E-1,0E0,1.2890244E0,1.4410859E0,7.217159E-1,0E0,1.8949407E0,0E0,1.4902115E-2,1.0615455E0,0E0,3.813553E-2,5.776052E-1,0E0,0E0,0E0,5.874844E-1,0E0,0E0,0E0,0E0],"parents":[2147483647,0,0,2,2,3,3,4,4,6,6,8,8,9,9,11,11,12,12,16,16],"right_children":[2,-1,4,6,8,-1,10,-1,12,14,-1,16,18,-1,-1,-1,20,-1,-1,-1,-1],"split_conditions":[3.50839E3,-5.3884137E-2,3.56449E3,7.08E0,1.307E1,-4.481314E-2,3.32E0,1.6060067E-2,4.079E1,1.28E0,-3.632913E-2,5.105E1,3.974E1,6.1881836E-3,1.21673E-1,-5.35281E-2,8.5E-1,-4.4805452E-2,2.1746239E-2,2.2637725E-2,-4.4667132E-2],"split_indices":[9,0,9,1,4,0,2,0,7,3,0,4,5,0,0,0,3,0,0,0,0],"split_type":[0,0,0,0,0,0,0,0,0,0,0,0,0,0,0,0,0,0,0,0,0],"sum_hessian":[6.6086365E2,5.530945E2,1.0776919E2,9.150853E0,9.861834E1,4.647704E0,4.503149E0,1.1792024E0,9.743913E1,2.5115936E0,1.9915553E0,9.166171E1,5.7774224E0,1.5102146E0,1.0013791E0,8.596089E1,5.7008166E0,4.7491426E0,1.02828E0,1.0063907E0,4.694426E0],"tree_param":{"num_deleted":"0","num_feature":"10","num_nodes":"21","size_leaf_vector":"1"}},{"base_weights":[2.1402973E-1,1.8995349E-1,-5.3915966E-2],"categories":[],"categories_nodes":[],"categories_segments":[],"categories_sizes":[],"default_left":[0,0,0],"id":38,"left_children":[1,-1,-1],"loss_changes":[1.0474585E3,0E0,0E0],"parents":[2147483647,0,0],"right_children":[2,-1,-1],"split_conditions":[5.0008E2,1.8995349E-1,-5.3915966E-2],"split_indices":[9,0,0],"split_type":[0,0,0],"sum_hessian":[8.2328564E2,2.5380121E2,5.6948444E2],"tree_param":{"num_deleted":"0","num_feature":"10","num_nodes":"3","size_leaf_vector":"1"}},{"base_weights":[-4.5750326E-1,-5.3883232E-2,-8.630785E-2,8.677006E-1,-2.3157638E-1,1.0953001E0,-3.807649E-2,7.5920373E-1,-2.8498778E-1,1.6543552E0,4.2026216E-1,1.311343E-1,2.729263E-1,7.822272E-2,-3.102731E-1,1.8723265E0,1.8865561E-2,7.7897316E-1,-3.6829628E-2,-3.2856926E-2,7.038648E-2,3.3761078E-1,-3.3375618E-1,2.0819056E-1,5.6375276E-2,-2.7983824E-2,1.08479075E-1,-3.5973657E-2,1.1452403E-1,-1.3950983E-3,-3.9219137E-2],"categories":[],"categories_nodes":[],"categories_segments":[],"categories_sizes":[],"default_left":[0,0,0,0,0,0,0,0,0,0,0,0,0,0,0,0,0,0,0,0,0,0,0,0,0,0,0,0,0,0,0],"id":39,"left_children":[1,-1,3,5,7,9,-1,11,13,15,17,-1,19,-1,21,23,-1,25,-1,-1,-1,27,29,-1,-1,-1,-1,-1,-1,-1,-1],"loss_changes":[2.0260635E1,0E0,1.7120317E1,5.0612106E0,5.864958E0,4.6189957E0,0E0,1.1813171E0,2.9953718E0,1.9988213E0,2.470536E0,0E0,1.348721E0,0E0,1.6396275E0,5.532551E-1,0E0,2.125629E0,0E0,0E0,0E0,2.6690679E0,1.8138905E0,0E0,0E0,0E0,0E0,0E0,0E0,0E0,0E0],"parents":[2147483647,0,0,2,2,3,3,4,4,5,5,7,7,8,8,9,9,10,10,12,12,14,14,15,15,17,17,21,21,22,22],"right_children":[2,-1,4,6,8,10,-1,12,14,16,18,-1,20,-1,22,24,-1,26,-1,-1,-1,28,30,-1,-1,-1,-1,-1,-1,-1,-1],"split_conditions":[3.49261E3,-5.3883232E-2,5.91E0,3.92409E3,1.07E0,1.3295E2,-3.807649E-2,9.8E-1,1.58E0,4.42E0,3.41E0,1.311343E-1,4.176E1,7.822272E-2,6.977E1,3.098E1,1.8865561E-2,1.6424E2,-3.6829628E-2,-3.2856926E-2,7.038648E-2,3.55E0,1.898E1,2.0819056E-1,5.6375276E-2,-2.7983824E-2,1.08479075E-1,-3.5973657E-2,1.1452403E-1,-1.3950983E-3,-3.9219137E-2],"split_indices":[9,0,1,9,8,6,0,8,2,2,2,0,4,0,6,7,0,6,0,0,0,2,4,0,0,0,0,0,0,0,0],"split_type":[0,0,0,0,0,0,0,0,0,0,0,0,0,0,0,0,0,0,0,0,0,0,0,0,0,0,0,0,0,0,0],"sum_hessian":[6.7166754E2,5.5058295E2,1.2108454E2,1.5344033E1,1.0574051E2,1.308185E1,2.2621834E0,4.7328053E0,1.01007706E2,6.362104E0,6.7197456E0,1.4217712E0,3.3110342E0,1.6449168E0,9.9362785E1,5.2969413E0,1.0651628E0,4.627071E0,2.0926747E0,1.4811804E0,1.8298537E0,3.0076168E0,9.635517E1,4.0563154E0,1.2406256E0,1.0559784E0,3.5710926E0,1.9116127E0,1.096004E0,1.5077498E1,8.127767E1],"tree_param":{"num_deleted":"0","num_feature":"10","num_nodes":"31","size_leaf_vector":"1"}},{"base_weights":[3.294791E-1,-5.3866785E-2,1.4082434E0,1.8895957E-1,7.193649E-1,8.0481654E-1,-4.1122705E-1,9.4879776E-2,8.6677694E-1,-4.911088E-2,2.0615468E-2,-1.5109202E-1,9.928661E-2,5.7919866E-1,1.032476E0,7.7827655E-2,-3.9682347E-2,3.0924473E-2,1.4191958E-1,1.1743935E-1,2.059553E-2],"categories":[],"categories_nodes":[],"categories_segments":[],"categories_sizes":[],"default_left":[0,0,0,0,0,0,0,0,0,0,0,0,0,0,0,0,0,0,0,0,0],"id":40,"left_children":[1,-1,3,-1,5,7,9,11,13,-1,-1,15,-1,17,19,-1,-1,-1,-1,-1,-1],"loss_changes":[8.0172E2,0E0,1.2518988E2,0E0,1.5652992E1,6.4186935E0,6.8350387E-1,3.0183449E0,5.873184E0,0E0,0E0,2.8350475E0,0E0,1.1334883E1,9.714493E0,0E0,0E0,0E0,0E0,0E0,0E0],"parents":[2147483647,0,0,2,2,4,4,5,5,6,6,7,7,8,8,11,11,13,13,14,14],"right_children":[2,-1,4,-1,6,8,10,12,14,-1,-1,16,-1,18,20,-1,-1,-1,-1,-1,-1],"split_conditions":[2.99992E3,-5.3866785E-2,3.50839E3,1.8895957E-1,4.26332E3,1.634E1,1.76E0,2.31E0,1.4989E2,-4.911088E-2,2.0615468E-2,1.96E0,9.928661E-2,3.28E1,2.9514E2,7.7827655E-2,-3.9682347E-2,3.0924473E-2,1.4191958E-1,1.1743935E-1,2.059553E-2],"split_indices":[9,0,9,0,9,4,8,3,6,0,0,2,0,5,6,0,0,0,0,0,0],"split_type":[0,0,0,0,0,0,0,0,0,0,0,0,0,0,0,0,0,0,0,0,0],"sum_hessian":[8.5424744E2,4.7360748E2,3.8063995E2,2.2304488E2,1.5759508E2,1.4678873E2,1.0806341E1,1.1985964E1,1.3480276E2,9.749414E0,1.056927E0,1.0061667E1,1.9242966E0,5.092156E1,8.388121E1,1.6508576E0,8.4108095E0,3.95722E1,1.13493595E1,7.122983E1,1.2651385E1],"tree_param":{"num_deleted":"0","num_feature":"10","num_nodes":"21","size_leaf_vector":"1"}},{"base_weights":[-5.0818086E-1,-5.3884137E-2,-3.5147244E-1,-1.0342501E-1,-4.7993615E-1,-3.7228855E-1,4.093395E-1,-4.921893E-1,5.777037E-4,-4.4275025E-1,6.0670447E-2,1.09292315E-2,1.0979252E0,-2.6295283E-1,-5.170942E-1,1.3634124E-1,-5.1860202E-2,-2.5221774E-1,9.748824E-2,1.4446055E0,9.210476E-3,3.7611425E-2,-4.687407E-2,-2.3322038E-1,-5.320251E-2,-3.3290353E-2,6.3124664E-2,-4.668763E-2,3.3804495E-2,1.4787073E-2,1.9957446E-1,-4.0432904E-2,1.9812195E-2],"categories":[],"categories_nodes":[],"categories_segments":[],"categories_sizes":[],"default_left":[0,0,0,0,0,0,0,0,0,0,0,0,0,0,0,0,0,0,0,0,0,0,0,0,0,0,0,0,0,0,0,0,0],"id":41,"left_children":[1,-1,3,5,7,9,11,13,-1,15,-1,17,19,21,23,25,-1,27,-1,29,-1,-1,-1,31,-1,-1,-1,-1,-1,-1,-1,-1,-1],"loss_changes":[3.0045776E0,0E0,3.5082026E0,5.5801134E0,4.3898773E-1,2.0863776E0,3.8339176E0,2.7218056E-1,0E0,1.1758728E0,0E0,2.7547553E0,1.6551313E0,1.3652438E0,1.448574E-1,1.0707347E0,0E0,1.2429373E0,0E0,2.3817964E0,0E0,0E0,0E0,4.4552767E-1,0E0,0E0,0E0,0E0,0E0,0E0,0E0,0E0,0E0],"parents":[2147483647,0,0,2,2,3,3,4,4,5,5,6,6,7,7,9,9,11,11,12,12,13,13,14,14,15,15,17,17,19,19,23,23],"right_children":[2,-1,4,6,8,10,12,14,-1,16,-1,18,20,22,24,26,-1,28,-1,30,-1,-1,-1,32,-1,-1,-1,-1,-1,-1,-1,-1,-1],"split_conditions":[3.50839E3,-5.3884137E-2,3.72968E3,7.39E0,4.334E1,4.188E1,2.4343E2,1.018E1,5.777037E-4,1.062E1,6.0670447E-2,3.70443E3,2.489E1,2.315E1,1.516E1,3.6E0,-5.1860202E-2,1.9393E2,9.748824E-2,1.725E1,9.210476E-3,3.7611425E-2,-4.687407E-2,3.504E1,-5.320251E-2,-3.3290353E-2,6.3124664E-2,-4.668763E-2,3.3804495E-2,1.4787073E-2,1.9957446E-1,-4.0432904E-2,1.9812195E-2],"split_indices":[9,0,9,1,5,7,6,7,0,5,0,9,7,4,4,2,0,6,0,7,0,0,0,5,0,0,0,0,0,0,0,0,0],"split_type":[0,0,0,0,0,0,0,0,0,0,0,0,0,0,0,0,0,0,0,0,0,0,0,0,0,0,0,0,0,0,0,0,0],"sum_hessian":[6.637477E2,5.530945E2,1.106532E2,3.8370205E1,7.228299E1,2.5351387E1,1.3018818E1,7.049136E1,1.7916284E0,2.4160234E1,1.1911509E0,8.890637E0,4.1281805E0,8.040556E0,6.2450806E1,2.7057405E0,2.1454494E1,7.564088E0,1.3265495E0,2.745598E0,1.3825825E0,1.7568959E0,6.2836595E0,3.9510767E0,5.849973E1,1.5569022E0,1.1488384E0,5.7001667E0,1.863921E0,1.1971684E0,1.5484297E0,2.8737273E0,1.0773493E0],"tree_param":{"num_deleted":"0","num_feature":"10","num_nodes":"33","size_leaf_vector":"1"}},{"base_weights":[-5.1111573E-1,-5.3886153E-2,-3.6391363E-1,-1.8171592E-1,-5.3112414E-2,-2.4310605E-1,8.3818835E-1,-3.238569E-1,6.390974E-1,-2.9368818E-2,1.592878E-1,-4.7592726E-1,-1.775266E-1,-3.0058661E-2,1.0664296E0,-5.1828463E-2,2.0184737E-2,9.0799384E-2,-2.783209E-2,1.5078746E-1,1.4450501E-2],"categories":[],"categories_nodes":[],"categories_segments":[],"categories_sizes":[],"default_left":[0,0,0,0,0,0,0,0,0,0,0,0,0,0,0,0,0,0,0,0,0],"id":42,"left_children":[1,-1,3,5,-1,7,9,11,13,-1,-1,15,17,-1,19,-1,-1,-1,-1,-1,-1],"loss_changes":[2.5176544E0,0E0,3.2076826E0,3.5486794E0,0E0,3.8518946E0,3.250748E0,9.7335005E-1,2.1785078E0,0E0,0E0,7.567873E-1,3.077917E0,0E0,1.1659906E0,0E0,0E0,0E0,0E0,0E0,0E0],"parents":[2147483647,0,0,2,2,3,3,5,5,6,6,7,7,8,8,11,11,12,12,14,14],"right_children":[2,-1,4,6,-1,8,10,12,14,-1,-1,16,18,-1,20,-1,-1,-1,-1,-1,-1],"split_conditions":[3.52963E3,-5.3886153E-2,3.83129E3,5.302E1,-5.3112414E-2,5E0,3.63622E3,2.32E1,3E0,-2.9368818E-2,1.592878E-1,8.35E0,2.371E1,-3.0058661E-2,3.213E1,-5.1828463E-2,2.0184737E-2,9.0799384E-2,-2.783209E-2,1.5078746E-1,1.4450501E-2],"split_indices":[9,0,9,4,0,2,9,7,0,0,0,1,7,0,4,0,0,0,0,0,0],"split_type":[0,0,0,0,0,0,0,0,0,0,0,0,0,0,0,0,0,0,0,0,0],"sum_hessian":[6.634462E2,5.559887E2,1.07457504E2,5.242278E1,5.5034725E1,5.016489E1,2.2578893E0,4.653802E1,3.6268709E0,1.1475914E0,1.110298E0,2.1716862E1,2.482116E1,1.2264845E0,2.4003863E0,2.0660973E1,1.0558887E0,1.4284843E0,2.3392675E1,1.1933851E0,1.2070012E0],"tree_param":{"num_deleted":"0","num_feature":"10","num_nodes":"21","size_leaf_vector":"1"}},{"base_weights":[-5.3327274E-1,-5.347398E-2,-1.5944885E-1,-3.595675E-2,2.0343905E-2],"categories":[],"categories_nodes":[],"categories_segments":[],"categories_sizes":[],"default_left":[0,0,0,0,0],"id":43,"left_children":[1,-1,3,-1,-1],"loss_changes":[2.7729797E-1,0E0,3.6430368E-1,0E0,0E0],"parents":[2147483647,0,0,2,2],"right_children":[2,-1,4,-1,-1],"split_conditions":[4.485E1,-5.347398E-2,3.347E1,-3.595675E-2,2.0343905E-2],"split_indices":[7,0,5,0,0],"split_type":[0,0,0,0,0],"sum_hessian":[6.6010803E2,6.570988E2,3.009241E0,1.9455148E0,1.0637262E0],"tree_param":{"num_deleted":"0","num_feature":"10","num_nodes":"5","size_leaf_vector":"1"}},{"base_weights":[6.714428E-1,1.2141769E0,-5.328133E-1,-5.175956E-1,1.5966795E-1,-1.3476178E-1,-5.3587236E-2,-5.32759E-2,1.2121805E-1,2.1477332E-2,-3.449563E-2,6.662992E-2,-3.455222E-2],"categories":[],"categories_nodes":[],"categories_segments":[],"categories_sizes":[],"default_left":[0,0,0,0,0,0,0,0,0,0,0,0,0],"id":44,"left_children":[1,3,5,7,-1,9,-1,-1,11,-1,-1,-1,-1],"loss_changes":[6.728445E2,4.7064648E2,3.1768036E-1,1.3148384E0,0E0,3.5166126E-1,0E0,0E0,1.1988499E0,0E0,0E0,0E0,0E0],"parents":[2147483647,0,0,1,1,2,2,3,3,5,5,8,8],"right_children":[2,4,6,8,-1,10,-1,-1,12,-1,-1,-1,-1],"split_conditions":[1.99934E3,8.0769E2,2.01967E3,7.8821E2,1.5966795E-1,1.925E1,-5.3587236E-2,-5.32759E-2,1.11E0,2.1477332E-2,-3.449563E-2,6.662992E-2,-3.455222E-2],"split_indices":[9,9,9,9,0,7,0,0,8,0,0,0,0],"split_type":[0,0,0,0,0,0,0,0,0,0,0,0,0],"sum_hessian":[1.0274685E3,7.082612E2,3.1920734E2,1.2807071E2,5.801905E2,2.7780387E0,3.1642932E2,1.2526337E2,2.8073342E0,1.0350528E0,1.742986E0,1.0977598E0,1.7095742E0],"tree_param":{"num_deleted":"0","num_feature":"10","num_nodes":"13","size_leaf_vector":"1"}},{"base_weights":[-1.1481813E-2,-5.358851E-2,1.1534458E0,7.281133E-1,1.3685257E0,7.8994524E-1,-1.4095627E-1,1.255529E0,1.6014768E0,1.0099583E0,4.8425803E-1,-4.4422995E-2,7.015012E-2,1.384569E0,9.8211205E-1,7.2632277E-1,1.6460271E-1,1.225134E0,5.768643E-1,1.7744298E-1,9.064053E-1,1.5921813E0,8.3472466E-1,1.1800187E0,4.112422E-1,-3.337555E-2,1.2063181E-1,1.3626705E-1,3.231862E-2,1.0594922E-1,1.8118614E-2,4.0720552E-2,-3.4300584E-2,-2.2120658E-2,1.3117658E-1,1.4364624E-2,1.6228417E-1,1.0786243E-1,9.640717E-3,-4.3302323E-3,1.3533668E-1,9.157329E-2,-7.1449815E-3],"categories":[],"categories_nodes":[],"categories_segments":[],"categories_sizes":[],"default_left":[0,0,0,0,0,0,0,0,0,0,0,0,0,0,0,0,0,0,0,0,0,0,0,0,0,0,0,0,0,0,0,0,0,0,0,0,0,0,0,0,0,0,0],"id":45,"left_children":[1,-1,3,5,7,9,11,13,15,17,19,-1,-1,21,23,25,-1,27,29,31,33,35,37,39,41,-1,-1,-1,-1,-1,-1,-1,-1,-1,-1,-1,-1,-1,-1,-1,-1,-1,-1],"loss_changes":[4.5815475E2,0E0,2.0301239E1,4.4277573E0,2.02948E0,4.5645943E0,1.8915957E0,2.449997E0,6.1756134E-1,3.2793045E0,4.1611633E0,0E0,0E0,6.7667236E0,3.8149986E0,2.4595015E0,0E0,2.9940224E0,2.880115E0,2.5991502E0,6.5986347E0,2.0043488E0,3.7749119E0,5.9388733E0,2.8252697E0,0E0,0E0,0E0,0E0,0E0,0E0,0E0,0E0,0E0,0E0,0E0,0E0,0E0,0E0,0E0,0E0,0E0,0E0],"parents":[2147483647,0,0,2,2,3,3,4,4,5,5,6,6,7,7,8,8,9,9,10,10,13,13,14,14,15,15,17,17,18,18,19,19,20,20,21,21,22,22,23,23,24,24],"right_children":[2,-1,4,6,8,10,12,14,16,18,20,-1,-1,22,24,26,-1,28,30,32,34,36,38,40,42,-1,-1,-1,-1,-1,-1,-1,-1,-1,-1,-1,-1,-1,-1,-1,-1,-1,-1],"split_conditions":[3.49261E3,-5.358851E-2,3.79346E3,3.869E1,4.18016E3,3.482E1,2.7963E2,4.00204E3,1.76E0,7.24E0,2.824E1,-4.4422995E-2,7.015012E-2,7.41E0,4.684E1,4.266E1,1.6460271E-1,3.442E1,1.886E1,4E0,8.6E-1,5.52E0,1.51E0,2.21E0,2.78E0,-3.337555E-2,1.2063181E-1,1.3626705E-1,3.231862E-2,1.0594922E-1,1.8118614E-2,4.0720552E-2,-3.4300584E-2,-2.2120658E-2,1.3117658E-1,1.4364624E-2,1.6228417E-1,1.0786243E-1,9.640717E-3,-4.3302323E-3,1.3533668E-1,9.157329E-2,-7.1449815E-3],"split_indices":[9,0,9,7,9,4,6,9,2,1,5,0,0,1,4,4,0,5,7,0,3,1,8,2,2,0,0,0,0,0,0,0,0,0,0,0,0,0,0,0,0,0,0],"split_type":[0,0,0,0,0,0,0,0,0,0,0,0,0,0,0,0,0,0,0,0,0,0,0,0,0,0,0,0,0,0,0,0,0,0,0,0,0,0,0,0,0,0,0],"sum_hessian":[7.47965E2,5.1615356E2,2.3181145E2,7.932572E1,1.5248573E2,7.414178E1,5.183944E0,1.0698205E2,4.5503685E1,4.177271E1,3.2369064E1,4.1593356E0,1.0246091E0,6.9919426E1,3.706262E1,3.0423636E0,4.246132E1,2.6685602E1,1.5087109E1,1.9567684E1,1.2801383E1,4.9379017E1,2.0540411E1,2.6729204E1,1.0333416E1,1.0431708E0,1.999193E0,2.2711552E1,3.974049E0,6.040974E0,9.046134E0,1.372576E1,5.841923E0,3.5051696E0,9.296213E0,1.1413496E0,4.8237667E1,1.5093443E1,5.4469676E0,3.4106183E0,2.3318586E1,4.613955E0,5.719461E0],"tree_param":{"num_deleted":"0","num_feature":"10","num_nodes":"43","size_leaf_vector":"1"}},{"base_weights":[7.439795E-1,9.7742474E-1,-3.7213156E-1,2.3218027E-1,1.5959655E-1,-5.164773E-1,-2.7465E-1,8.114006E-1,-5.338317E-2,-1.614115E-1,-5.2949E-2,-1.1486061E-1,-5.0512505E-1,-5.306871E-2,1.5917833E-1,-3.6270607E-2,2.1783119E-2,-3.0640978E-1,3.4494203E-1,2.2467854E-2,-5.2635025E-2,-4.01094E-1,7.828141E-2,-4.4321697E-2,5.7026726E-1,-4.474425E-2,3.237348E-2,7.196859E-2,-4.5515087E-2,1.8184696E-3,9.7526595E-2],"categories":[],"categories_nodes":[],"categories_segments":[],"categories_sizes":[],"default_left":[0,0,0,0,0,0,0,0,0,0,0,0,0,0,0,0,0,0,0,0,0,0,0,0,0,0,0,0,0,0,0],"id":46,"left_children":[1,3,5,7,-1,9,11,13,-1,15,-1,17,19,-1,-1,-1,-1,21,23,-1,-1,25,27,-1,29,-1,-1,-1,-1,-1,-1],"loss_changes":[2.7902264E2,4.0747845E2,2.4715023E0,1.7899908E2,0E0,2.5519562E-1,4.103282E0,2.412796E2,0E0,3.8781205E-1,0E0,6.0969377E0,8.303461E-1,0E0,0E0,0E0,0E0,1.7997727E0,3.8889546E0,0E0,0E0,1.4591942E0,3.894774E0,0E0,3.640283E0,0E0,0E0,0E0,0E0,0E0,0E0],"parents":[2147483647,0,0,1,1,2,2,3,3,5,5,6,6,7,7,9,9,11,11,12,12,17,17,18,18,21,21,22,22,24,24],"right_children":[2,4,6,8,-1,10,12,14,-1,16,-1,18,20,-1,-1,-1,-1,22,24,-1,-1,26,28,-1,30,-1,-1,-1,-1,-1,-1],"split_conditions":[2.99992E3,1.99934E3,3.49261E3,8.0769E2,1.5959655E-1,3.0196E3,3.88986E3,5.0008E2,-5.338317E-2,2.1959E2,-5.2949E-2,1.54E0,1.7E-1,-5.306871E-2,1.5917833E-1,-3.6270607E-2,2.1783119E-2,4.606E1,6.36E0,2.2467854E-2,-5.2635025E-2,2.44E0,1.674E1,-4.4321697E-2,2.65E1,-4.474425E-2,3.237348E-2,7.196859E-2,-4.5515087E-2,1.8184696E-3,9.7526595E-2],"split_indices":[9,9,9,9,0,9,9,9,0,6,0,8,3,0,0,0,0,4,1,0,0,3,7,0,7,0,0,0,0,0,0],"split_type":[0,0,0,0,0,0,0,0,0,0,0,0,0,0,0,0,0,0,0,0,0,0,0,0,0,0,0,0,0,0,0],"sum_hessian":[1.0684993E3,8.8377386E2,1.8472543E2,4.0145682E2,4.8231702E2,7.273092E1,1.11994514E2,2.2856673E2,1.7289008E2,3.0451317E0,6.968579E1,6.702449E1,4.4970028E1,8.415629E1,1.4441045E2,2.0177524E0,1.0273792E0,4.754946E1,1.9475025E1,1.0000244E0,4.3970005E1,3.8123474E1,9.425986E0,4.1148367E0,1.5360188E1,3.6191914E1,1.9315642E0,4.121314E0,5.304672E0,6.941981E0,8.418207E0],"tree_param":{"num_deleted":"0","num_feature":"10","num_nodes":"31","size_leaf_vector":"1"}},{"base_weights":[-5.3319633E-1],"categories":[],"categories_nodes":[],"categories_segments":[],"categories_sizes":[],"default_left":[0],"id":47,"left_children":[-1],"loss_changes":[0E0],"parents":[2147483647],"right_children":[-1],"split_conditions":[-5.3319633E-2],"split_indices":[0],"split_type":[0],"sum_hessian":[6.195536E2],"tree_param":{"num_deleted":"0","num_feature":"10","num_nodes":"1","size_leaf_vector":"1"}},{"base_weights":[-5.2536553E-1,-5.3589415E-2,-4.6758434E-1,-9.753778E-2,-5.019614E-1,-2.662954E-1,7.1110815E-2,1.5543017E-2,-5.1201653E-1,6.2144496E-2,-4.759368E-2,-5.215558E-1,-3.0653208E-1,-5.3243965E-2,-3.034024E-1,2.205911E-2,-4.4309996E-2,2.2363735E-2,-4.413827E-2],"categories":[],"categories_nodes":[],"categories_segments":[],"categories_sizes":[],"default_left":[0,0,0,0,0,0,0,0,0,0,0,0,0,0,0,0,0,0,0],"id":48,"left_children":[1,-1,3,5,7,9,-1,-1,11,-1,-1,13,15,-1,17,-1,-1,-1,-1],"loss_changes":[1.2799072E-1,0E0,1.2709122E0,1.5622826E0,7.0552444E-1,1.9802371E0,0E0,0E0,2.3403168E-2,0E0,0E0,4.7224045E-2,5.709652E-1,0E0,5.7161224E-1,0E0,0E0,0E0,0E0],"parents":[2147483647,0,0,2,2,3,3,4,4,5,5,8,8,11,11,12,12,14,14],"right_children":[2,-1,4,6,8,10,-1,-1,12,-1,-1,14,16,-1,18,-1,-1,-1,-1],"split_conditions":[3.50839E3,-5.3589415E-2,3.56449E3,8.1E0,1.307E1,1.898E1,7.1110815E-2,1.5543017E-2,4.079E1,6.2144496E-2,-4.759368E-2,5.105E1,2.39E0,-5.3243965E-2,1.15E0,2.205911E-2,-4.4309996E-2,2.2363735E-2,-4.413827E-2],"split_indices":[9,0,9,1,4,4,0,0,7,0,0,4,2,0,8,0,0,0,0],"split_type":[0,0,0,0,0,0,0,0,0,0,0,0,0,0,0,0,0,0,0],"sum_hessian":[6.212628E2,5.185083E2,1.0275449E2,9.060573E0,9.3693924E1,8.051071E0,1.0095012E0,1.1936966E0,9.250023E1,1.1627989E0,6.8882723E0,8.692662E1,5.573605E0,8.142366E1,5.502962E0,1.020282E0,4.5533233E0,1.0129672E0,4.489995E0],"tree_param":{"num_deleted":"0","num_feature":"10","num_nodes":"19","size_leaf_vector":"1"}},{"base_weights":[2.0051506E-1,1.5970562E-1,-5.36291E-2],"categories":[],"categories_nodes":[],"categories_segments":[],"categories_sizes":[],"default_left":[0,0,0],"id":49,"left_children":[1,-1,-1],"loss_changes":[8.420986E2,0E0,0E0],"parents":[2147483647,0,0],"right_children":[2,-1,-1],"split_conditions":[5.0008E2,1.5970562E-1,-5.36291E-2],"split_indices":[9,0,0],"split_type":[0,0,0],"sum_hessian":[8.1654944E2,2.81613E2,5.349364E2],"tree_param":{"num_deleted":"0","num_feature":"10","num_nodes":"3","size_leaf_vector":"1"}},{"base_weights":[-4.505709E-1,-5.358851E-2,-7.909444E-2,7.890506E-1,-2.2167991E-1,9.827617E-1,-3.7435323E-2,7.1122384E-1,-2.753659E-1,1.4479506E0,3.8851106E-1,2.5684487E-3,9.70078E-1,7.379069E-2,-3.0098537E-1,1.6182141E0,1.8254813E-2,-1.8993367E-1,8.3595353E-1,1.20101504E-1,1.7237997E-2,3.2848683E-1,-3.2484263E-1,1.7754261E-1,5.291168E-2,-3.790389E-2,2.1335328E-2,1.410911E-1,-1.4398836E-3,-3.546066E-2,1.0661658E-1,-1.1401027E-3,-3.841451E-2],"categories":[],"categories_nodes":[],"categories_segments":[],"categories_sizes":[],"default_left":[0,0,0,0,0,0,0,0,0,0,0,0,0,0,0,0,0,0,0,0,0,0,0,0,0,0,0,0,0,0,0,0,0],"id":50,"left_children":[1,-1,3,5,7,9,-1,11,13,15,17,-1,19,-1,21,23,-1,25,27,-1,-1,29,31,-1,-1,-1,-1,-1,-1,-1,-1,-1,-1],"loss_changes":[2.0118195E1,0E0,1.502707E1,4.231909E0,5.3964515E0,3.5768871E0,0E0,1.0273066E0,2.7897158E0,1.4352036E0,2.214253E0,0E0,5.8088255E-1,0E0,1.5661011E0,2.5102043E-1,0E0,4.071745E-1,2.3001597E0,0E0,0E0,2.4167967E0,1.7453651E0,0E0,0E0,0E0,0E0,0E0,0E0,0E0,0E0,0E0,0E0],"parents":[2147483647,0,0,2,2,3,3,4,4,5,5,7,7,8,8,9,9,10,10,12,12,14,14,15,15,17,17,18,18,21,21,22,22],"right_children":[2,-1,4,6,8,10,-1,12,14,16,18,-1,20,-1,22,24,-1,26,28,-1,-1,30,32,-1,-1,-1,-1,-1,-1,-1,-1,-1,-1],"split_conditions":[3.49261E3,-5.358851E-2,5.91E0,3.92409E3,1.07E0,1.3295E2,-3.7435323E-2,1.557E1,1.58E0,4.42E0,1.39E0,2.5684487E-3,4.587E1,7.379069E-2,6.977E1,3.098E1,1.8254813E-2,2.685E2,2.13E0,1.20101504E-1,1.7237997E-2,3.55E0,1.898E1,1.7754261E-1,5.291168E-2,-3.790389E-2,2.1335328E-2,1.410911E-1,-1.4398836E-3,-3.546066E-2,1.0661658E-1,-1.1401027E-3,-3.841451E-2],"split_indices":[9,0,1,9,8,6,0,5,2,2,8,0,4,0,6,7,0,6,2,0,0,2,4,0,0,0,0,0,0,0,0,0,0],"split_type":[0,0,0,0,0,0,0,0,0,0,0,0,0,0,0,0,0,0,0,0,0,0,0,0,0,0,0,0,0,0,0,0,0],"sum_hessian":[6.3513715E2,5.1615356E2,1.18983604E2,1.6145617E1,1.0283798E2,1.397414E1,2.1714768E0,4.9295254E0,9.790846E1,7.0324373E0,6.941703E0,1.652454E0,3.2770712E0,1.7288381E0,9.617962E1,5.952674E0,1.0797632E0,3.2786465E0,3.6630566E0,2.1492524E0,1.1278188E0,3.045868E0,9.313375E1,4.651103E0,1.3015711E0,2.2729595E0,1.005687E0,1.792123E0,1.8709337E0,1.8510672E0,1.1948007E0,1.5006988E1,7.812677E1],"tree_param":{"num_deleted":"0","num_feature":"10","num_nodes":"33","size_leaf_vector":"1"}},{"base_weights":[3.0758545E-1,-5.3570934E-2,1.2105675E0,1.5879814E-1,6.4333045E-1,7.147037E-1,-4.038686E-1,5.2993345E-1,9.136998E-1,2.0549728E-2,-4.8666064E-2,6.662599E-1,9.561782E-3,-1.1476089E-1,9.8401475E-1,5.642599E-2,1.6840856E-1,-4.008542E-2,4.329742E-2,-4.3805953E-2,5.4911394E-2,5.719141E-2,1.184686E-1],"categories":[],"categories_nodes":[],"categories_segments":[],"categories_sizes":[],"default_left":[0,0,0,0,0,0,0,0,0,0,0,0,0,0,0,0,0,0,0,0,0,0,0],"id":51,"left_children":[1,-1,3,-1,5,7,9,11,13,-1,-1,15,17,19,21,-1,-1,-1,-1,-1,-1,-1,-1],"loss_changes":[6.549011E2,0E0,8.78692E1,0E0,1.2813248E1,5.2972946E0,6.716758E-1,5.9466133E0,5.4878044E0,0E0,0E0,5.9516125E0,3.3770788E0,1.4536078E0,5.084175E0,0E0,0E0,0E0,0E0,0E0,0E0,0E0,0E0],"parents":[2147483647,0,0,2,2,4,4,5,5,6,6,7,7,8,8,11,11,12,12,13,13,14,14],"right_children":[2,-1,4,-1,6,8,10,12,14,-1,-1,16,18,20,22,-1,-1,-1,-1,-1,-1,-1,-1],"split_conditions":[2.99992E3,-5.3570934E-2,3.50839E3,1.5879814E-1,4.26332E3,3.6E1,1.78E0,2.5394E2,8.005E1,2.0549728E-2,-4.8666064E-2,3.926E1,7.04E0,4E0,1.777E1,5.642599E-2,1.6840856E-1,-4.008542E-2,4.329742E-2,-4.3805953E-2,5.4911394E-2,5.719141E-2,1.184686E-1],"split_indices":[9,0,9,0,9,4,2,6,6,0,0,5,1,0,7,0,0,0,0,0,0,0,0],"split_type":[0,0,0,0,0,0,0,0,0,0,0,0,0,0,0,0,0,0,0,0,0,0,0],"sum_hessian":[8.581855E2,4.4396933E2,4.1421616E2,2.4764491E2,1.6657124E2,1.5624002E2,1.0331237E1,8.291526E1,7.332475E1,1.058485E0,9.272752E0,6.5480415E1,1.7434843E1,4.651886E0,6.867287E1,6.092889E1,4.5515237E0,8.88035E0,8.554494E0,3.3571455E0,1.2947402E0,2.374987E1,4.4923E1],"tree_param":{"num_deleted":"0","num_feature":"10","num_nodes":"23","size_leaf_vector":"1"}},{"base_weights":[-5.0359035E-1,-5.3589415E-2,-3.4270713E-1,-9.732874E-2,-4.7439536E-1,-3.657555E-1,3.9157432E-1,-4.8715928E-1,6.25117E-4,-4.3757823E-1,5.6681305E-2,7.256135E-1,-2.7114165E-1,-2.524766E-1,-5.1325065E-1,1.3443574E-1,-5.1569354E-2,-3.534424E-2,1.0123606E0,-4.2450882E-2,1.735297E-2,-4.6388533E-2,3.761106E-2,-2.2540052E-1,-5.2892204E-2,-3.447367E-2,7.125917E-2,4.094269E-2,1.7856763E-1,-4.002599E-2,2.0760251E-2],"categories":[],"categories_nodes":[],"categories_segments":[],"categories_sizes":[],"default_left":[0,0,0,0,0,0,0,0,0,0,0,0,0,0,0,0,0,0,0,0,0,0,0,0,0,0,0,0,0,0,0],"id":52,"left_children":[1,-1,3,5,7,9,11,13,-1,15,-1,17,19,21,23,25,-1,-1,27,-1,-1,-1,-1,29,-1,-1,-1,-1,-1,-1,-1],"loss_changes":[3.0695038E0,0E0,3.425661E0,5.2327256E0,4.3040657E-1,1.9595575E0,3.346591E0,2.8600693E-1,0E0,1.1546831E0,0E0,3.3691397E0,4.4850722E-1,1.3384385E0,1.5194798E-1,1.2739483E0,0E0,0E0,2.9746237E0,0E0,0E0,0E0,0E0,4.5003283E-1,0E0,0E0,0E0,0E0,0E0,0E0,0E0],"parents":[2147483647,0,0,2,2,3,3,4,4,5,5,6,6,7,7,9,9,11,11,12,12,13,13,14,14,15,15,18,18,23,23],"right_children":[2,-1,4,6,8,10,12,14,-1,16,-1,18,20,22,24,26,-1,-1,28,-1,-1,-1,-1,30,-1,-1,-1,-1,-1,-1,-1],"split_conditions":[3.50839E3,-5.3589415E-2,3.72968E3,7.39E0,4.334E1,4.188E1,7.94E0,1.018E1,6.25117E-4,1.062E1,5.6681305E-2,1.473E1,4.84E0,9.7E0,1.516E1,4.02E0,-5.1569354E-2,-3.534424E-2,2.4944E2,-4.2450882E-2,1.735297E-2,-4.6388533E-2,3.761106E-2,2.2441E2,-5.2892204E-2,-3.447367E-2,7.125917E-2,4.094269E-2,1.7856763E-1,-4.002599E-2,2.0760251E-2],"split_indices":[9,0,9,1,5,7,1,7,0,5,0,7,2,7,4,2,0,0,6,0,0,0,0,6,0,0,0,0,0,0,0],"split_type":[0,0,0,0,0,0,0,0,0,0,0,0,0,0,0,0,0,0,0,0,0,0,0,0,0,0,0,0,0,0,0],"sum_hessian":[6.249506E2,5.185083E2,1.0644235E2,3.778171E1,6.866064E1,2.455303E1,1.3228681E1,6.687128E1,1.7893652E0,2.32901E1,1.2629299E0,8.732296E0,4.496385E0,7.758948E0,5.9112328E1,2.7117572E0,2.0578344E1,1.7844925E0,6.9478035E0,3.3770003E0,1.1193848E0,6.0022635E0,1.7566841E0,3.8463266E0,5.5266E1,1.7035747E0,1.0081825E0,4.763373E0,2.1844308E0,2.7937477E0,1.0525789E0],"tree_param":{"num_deleted":"0","num_feature":"10","num_nodes":"31","size_leaf_vector":"1"}},{"base_weights":[-5.0666237E-1,-5.359177E-2,-3.552493E-1,-1.7393802E-1,-5.2792277E-2,-2.4744631E-1,6.4021313E-1,-3.318197E-1,6.0461086E-1,1.4492226E-1,-3.5643894E-2,-4.1210145E-1,-5.424704E-2,9.8768365E-1,-3.0505452E-2,-4.9251936E-2,1.7940475E-2,3.3261057E-2,-4.5588907E-2,1.353493E-1,1.4873934E-2],"categories":[],"categories_nodes":[],"categories_segments":[],"categories_sizes":[],"default_left":[0,0,0,0,0,0,0,0,0,0,0,0,0,0,0,0,0,0,0,0,0],"id":53,"left_children":[1,-1,3,5,-1,7,9,11,13,-1,-1,15,17,19,-1,-1,-1,-1,-1,-1,-1],"loss_changes":[2.5804443E0,0E0,3.1721678E0,3.2912302E0,0E0,3.704116E0,4.2365894E0,9.801612E-1,1.9548758E0,0E0,0E0,1.7410445E0,1.8987558E0,8.9585876E-1,0E0,0E0,0E0,0E0,0E0,0E0,0E0],"parents":[2147483647,0,0,2,2,3,3,5,5,6,6,7,7,8,8,11,11,12,12,13,13],"right_children":[2,-1,4,6,-1,8,10,12,14,-1,-1,16,18,20,-1,-1,-1,-1,-1,-1,-1],"split_conditions":[3.52963E3,-5.359177E-2,3.83129E3,5.078E1,-5.2792277E-2,5E0,1.19E0,3.316E1,5.23E0,1.4492226E-1,-3.5643894E-2,2.805E2,7.09E0,3.213E1,-3.0505452E-2,-4.9251936E-2,1.7940475E-2,3.3261057E-2,-4.5588907E-2,1.353493E-1,1.4873934E-2],"split_indices":[9,0,9,4,0,2,8,7,2,0,0,6,1,4,0,0,0,0,0,0,0],"split_type":[0,0,0,0,0,0,0,0,0,0,0,0,0,0,0,0,0,0,0,0,0],"sum_hessian":[6.2451825E2,5.212627E2,1.0325555E2,5.1347137E1,5.1908413E1,4.7733437E1,3.6137002E0,4.3988155E1,3.7452807E0,1.7439765E0,1.8697236E0,3.374384E1,1.0244317E1,2.575103E0,1.1701777E0,2.9852592E1,3.8912466E0,5.305747E0,4.9385695E0,1.3661045E0,1.2089986E0],"tree_param":{"num_deleted":"0","num_feature":"10","num_nodes":"21","size_leaf_vector":"1"}},{"base_weights":[-5.300343E-1,-5.315891E-2,-1.4963654E-1,-3.5386812E-2,2.1071095E-2],"categories":[],"categories_nodes":[],"categories_segments":[],"categories_sizes":[],"default_left":[0,0,0,0,0],"id":54,"left_children":[1,-1,3,-1,-1],"loss_changes":[2.878723E-1,0E0,3.630985E-1,0E0,0E0],"parents":[2147483647,0,0,2,2],"right_children":[2,-1,4,-1,-1],"split_conditions":[4.485E1,-5.315891E-2,1.36E0,-3.5386812E-2,2.1071095E-2],"split_indices":[7,0,3,0,0],"split_type":[0,0,0,0,0],"sum_hessian":[6.2024536E2,6.1732477E2,2.9206088E0,1.8755803E0,1.0450286E0],"tree_param":{"num_deleted":"0","num_feature":"10","num_nodes":"5","size_leaf_vector":"1"}},{"base_weights":[6.1560255E-1,1.0786396E0,-5.2993643E-1,-5.13658E-1,1.3861515E-1,-1.2433751E-1,-5.3318262E-2,-5.297799E-2,1.2849121E-1,-3.3976752E-2,2.2599965E-2,6.733336E-2,-3.4030743E-2],"categories":[],"categories_nodes":[],"categories_segments":[],"categories_sizes":[],"default_left":[0,0,0,0,0,0,0,0,0,0,0,0,0],"id":55,"left_children":[1,3,5,7,-1,9,-1,-1,11,-1,-1,-1,-1],"loss_changes":[5.538904E2,3.6462433E2,3.2995605E-1,1.3210468E0,0E0,3.5555804E-1,0E0,0E0,1.1918138E0,0E0,0E0,0E0,0E0],"parents":[2147483647,0,0,1,1,2,2,3,3,5,5,8,8],"right_children":[2,4,6,8,-1,10,-1,-1,12,-1,-1,-1,-1],"split_conditions":[1.99934E3,8.0769E2,2.01967E3,7.8821E2,1.3861515E-1,3.345E1,-5.3318262E-2,-5.297799E-2,2.65E0,-3.3976752E-2,2.2599965E-2,6.733336E-2,-3.4030743E-2],"split_indices":[9,9,9,9,0,4,0,0,2,0,0,0,0],"split_type":[0,0,0,0,0,0,0,0,0,0,0,0,0],"sum_hessian":[1.0421573E3,7.4220844E2,2.9994885E2,1.2002874E2,6.221797E2,2.6936417E0,2.9725522E2,1.1725977E2,2.7689626E0,1.6866522E0,1.0069895E0,1.0788345E0,1.6901281E0],"tree_param":{"num_deleted":"0","num_feature":"10","num_nodes":"13","size_leaf_vector":"1"}},{"base_weights":[-8.176301E-3,-5.33095E-2,1.0087562E0,6.483013E-1,1.1869811E0,7.0054907E-1,-1.3718057E-1,1.0909295E0,1.3862127E0,8.824702E-1,4.3854067E-1,-4.4383984E-2,6.8491496E-2,1.1960614E0,8.6401224E-1,6.653436E-1,1.4206557E-1,9.2035997E-1,-3.262554E-2,1.6040114E-1,8.0529857E-1,1.3630127E0,7.3835474E-1,1.0124071E0,3.229527E-1,-3.341318E-2,1.1055317E-1,1.0932384E-1,5.516162E-2,7.221826E-2,-5.0872243E-3,-2.1667173E-2,1.1388796E-1,1.4163044E-2,1.3862054E-1,-3.9905146E-2,8.472239E-2,-5.130288E-3,1.1458724E-1,-2.9530255E-2,7.84254E-2],"categories":[],"categories_nodes":[],"categories_segments":[],"categories_sizes":[],"default_left":[0,0,0,0,0,0,0,0,0,0,0,0,0,0,0,0,0,0,0,0,0,0,0,0,0,0,0,0,0,0,0,0,0,0,0,0,0,0,0,0,0],"id":56,"left_children":[1,-1,3,5,7,9,11,13,15,17,19,-1,-1,21,23,25,-1,27,-1,29,31,33,35,37,39,-1,-1,-1,-1,-1,-1,-1,-1,-1,-1,-1,-1,-1,-1,-1,-1],"loss_changes":[3.9169595E2,0E0,1.5279144E1,3.5785751E0,1.6636047E0,3.4132118E0,1.8490292E0,1.7498779E0,3.0342102E-1,2.4100876E0,3.406496E0,0E0,0E0,4.8873215E0,2.928133E0,2.2058392E0,0E0,2.2610893E0,0E0,2.5244877E0,5.2581034E0,1.3710785E0,3.1608686E0,4.509079E0,3.1390452E0,0E0,0E0,0E0,0E0,0E0,0E0,0E0,0E0,0E0,0E0,0E0,0E0,0E0,0E0,0E0,0E0],"parents":[2147483647,0,0,2,2,3,3,4,4,5,5,6,6,7,7,8,8,9,9,10,10,13,13,14,14,15,15,17,17,19,19,20,20,21,21,22,22,23,23,24,24],"right_children":[2,-1,4,6,8,10,12,14,16,18,20,-1,-1,22,24,26,-1,28,-1,30,32,34,36,38,40,-1,-1,-1,-1,-1,-1,-1,-1,-1,-1,-1,-1,-1,-1,-1,-1],"split_conditions":[3.49261E3,-5.33095E-2,3.79346E3,3.869E1,4.18016E3,3.482E1,1.59E0,4.00204E3,1.76E0,3.7774E3,2.824E1,-4.4383984E-2,6.8491496E-2,7.41E0,4.776E1,4.266E1,1.4206557E-1,7.24E0,-3.262554E-2,6.17E0,8.6E-1,5.52E0,1.0144E2,2.21E0,4.988E1,-3.341318E-2,1.1055317E-1,1.0932384E-1,5.516162E-2,7.221826E-2,-5.0872243E-3,-2.1667173E-2,1.1388796E-1,1.4163044E-2,1.3862054E-1,-3.9905146E-2,8.472239E-2,-5.130288E-3,1.1458724E-1,-2.9530255E-2,7.84254E-2],"split_indices":[9,0,9,7,9,4,8,9,2,9,5,0,0,1,4,4,0,1,0,1,3,1,6,2,4,0,0,0,0,0,0,0,0,0,0,0,0,0,0,0,0],"split_type":[0,0,0,0,0,0,0,0,0,0,0,0,0,0,0,0,0,0,0,0,0,0,0,0,0,0,0,0,0,0,0,0,0,0,0,0,0,0,0,0,0],"sum_hessian":[7.31771E2,4.829555E2,2.4881549E2,8.385624E1,1.6495926E2,7.872765E1,5.128587E0,1.15669495E2,4.9289764E1,4.506761E1,3.366004E1,4.070365E0,1.0582218E0,7.6128044E1,3.9541447E1,3.1741478E0,4.6115616E1,4.3929142E1,1.1384715E0,1.9960142E1,1.3699899E1,5.433215E1,2.1795898E1,3.034708E1,9.1943655E0,1.0441875E0,2.1299603E0,2.8569921E1,1.5359218E1,4.794145E0,1.5165997E1,3.4575856E0,1.0242312E1,1.1449151E0,5.3187233E1,1.6711549E0,2.0124743E1,3.451828E0,2.6895252E1,4.082576E0,5.1117897E0],"tree_param":{"num_deleted":"0","num_feature":"10","num_nodes":"41","size_leaf_vector":"1"}},{"base_weights":[6.788522E-1,8.80964E-1,-3.6342418E-1,2.1947399E-1,1.3854437E-1,-5.1251966E-1,-2.6597714E-1,7.3868716E-1,-5.3091433E-2,-1.5070772E-1,-5.2633118E-2,-1.09845206E-1,-5.008976E-1,-5.2758157E-2,1.3812986E-1,-3.567482E-2,2.2646083E-2,-2.9830912E-1,3.1820896E-1,2.2112401E-2,-5.2324004E-2,-3.9410055E-1,7.7013835E-2,-4.3814782E-2,5.1960444E-1,-4.4170827E-2,3.1089604E-2,-4.5552634E-2,6.849878E-2,8.9057595E-2,-1.5739024E-4],"categories":[],"categories_nodes":[],"categories_segments":[],"categories_sizes":[],"default_left":[0,0,0,0,0,0,0,0,0,0,0,0,0,0,0,0,0,0,0,0,0,0,0,0,0,0,0,0,0,0,0],"id":57,"left_children":[1,3,5,7,-1,9,11,13,-1,15,-1,17,19,-1,-1,-1,-1,21,23,-1,-1,25,27,-1,29,-1,-1,-1,-1,-1,-1],"loss_changes":[2.3009427E2,3.0466742E2,2.4478855E0,1.5491183E2,0E0,2.6660347E-1,3.9665232E0,1.9181038E2,0E0,3.8748407E-1,0E0,5.51191E0,8.173542E-1,0E0,0E0,0E0,0E0,1.7250676E0,3.4280922E0,0E0,0E0,1.4032125E0,3.686025E0,0E0,3.2978349E0,0E0,0E0,0E0,0E0,0E0,0E0],"parents":[2147483647,0,0,1,1,2,2,3,3,5,5,6,6,7,7,9,9,11,11,12,12,17,17,18,18,21,21,22,22,24,24],"right_children":[2,4,6,8,-1,10,12,14,-1,16,-1,18,20,-1,-1,-1,-1,22,24,-1,-1,26,28,-1,30,-1,-1,-1,-1,-1,-1],"split_conditions":[2.99992E3,1.99934E3,3.49261E3,8.0769E2,1.3854437E-1,3.0196E3,3.88986E3,5.0008E2,-5.3091433E-2,1.45E0,-5.2633118E-2,1.54E0,1.7E-1,-5.2758157E-2,1.3812986E-1,-3.567482E-2,2.2646083E-2,4.606E1,6.36E0,2.2112401E-2,-5.2324004E-2,2.44E0,1.3E0,-4.3814782E-2,1.9689E2,-4.4170827E-2,3.1089604E-2,-4.5552634E-2,6.849878E-2,8.9057595E-2,-1.5739024E-4],"split_indices":[9,9,9,9,0,9,9,9,0,8,0,8,3,0,0,0,0,4,1,0,0,3,8,0,6,0,0,0,0,0,0],"split_type":[0,0,0,0,0,0,0,0,0,0,0,0,0,0,0,0,0,0,0,0,0,0,0,0,0,0,0,0,0,0,0],"sum_hessian":[1.0897533E3,9.128868E2,1.7686658E2,3.955993E2,5.172875E2,6.822373E1,1.0864285E2,2.3382518E2,1.6177412E2,2.9465544E0,6.5277176E1,6.614764E1,4.2495213E1,7.8775894E1,1.5504929E2,1.9405873E0,1.0059673E0,4.613736E1,2.0010275E1,1.0084668E0,4.1486748E1,3.671642E1,9.420943E0,3.960551E0,1.6049725E1,3.474367E1,1.9727457E0,5.1556892E0,4.265254E0,8.961915E0,7.087809E0],"tree_param":{"num_deleted":"0","num_feature":"10","num_nodes":"31","size_leaf_vector":"1"}},{"base_weights":[-5.302814E-1],"categories":[],"categories_nodes":[],"categories_segments":[],"categories_sizes":[],"default_left":[0],"id":58,"left_children":[-1],"loss_changes":[0E0],"parents":[2147483647],"right_children":[-1],"split_conditions":[-5.3028144E-2],"split_indices":[0],"split_type":[0],"sum_hessian":[5.8101154E2],"tree_param":{"num_deleted":"0","num_feature":"10","num_nodes":"1","size_leaf_vector":"1"}},{"base_weights":[-5.21991E-1,-5.3310346E-2,-4.621025E-1,-9.105523E-2,-4.9784708E-1,6.997711E-2,-2.608372E-1,1.5510586E-2,-5.083751E-1,-4.742792E-2,6.7516014E-2,-5.1835525E-1,-2.98336E-1,-5.297736E-2,-2.947415E-1,-4.383686E-2,2.2406233E-2,2.2081582E-2,-4.3594647E-2],"categories":[],"categories_nodes":[],"categories_segments":[],"categories_sizes":[],"default_left":[0,0,0,0,0,0,0,0,0,0,0,0,0,0,0,0,0,0,0],"id":59,"left_children":[1,-1,3,5,7,-1,9,-1,11,-1,-1,13,15,-1,17,-1,-1,-1,-1],"loss_changes":[1.4234924E-1,0E0,1.266676E0,1.5139463E0,6.9758415E-1,0E0,2.0966644E0,0E0,3.153038E-2,0E0,0E0,5.68676E-2,5.652673E-1,0E0,5.554189E-1,0E0,0E0,0E0,0E0],"parents":[2147483647,0,0,2,2,3,3,4,4,6,6,8,8,11,11,12,12,14,14],"right_children":[2,-1,4,6,8,-1,10,-1,12,-1,-1,14,16,-1,18,-1,-1,-1,-1],"split_conditions":[3.50839E3,-5.3310346E-2,3.56449E3,1.863E1,1.307E1,6.997711E-2,8.1E0,1.5510586E-2,4.079E1,-4.742792E-2,6.7516014E-2,5.105E1,3.974E1,-5.297736E-2,1.15E0,-4.383686E-2,2.2406233E-2,2.2081582E-2,-4.3594647E-2],"split_indices":[9,0,9,4,4,0,1,0,7,0,0,4,5,0,8,0,0,0,0],"split_type":[0,0,0,0,0,0,0,0,0,0,0,0,0,0,0,0,0,0,0],"sum_hessian":[5.830751E2,4.8515216E2,9.792289E1,8.916135E0,8.900675E1,1.0241529E0,7.8919816E0,1.1944396E0,8.781232E1,6.8281918E0,1.0637901E0,8.2427795E1,5.384517E0,7.712066E1,5.30714E0,4.3731236E0,1.0113934E0,1.0198267E0,4.2873135E0],"tree_param":{"num_deleted":"0","num_feature":"10","num_nodes":"19","size_leaf_vector":"1"}},{"base_weights":[1.888654E-1,1.3864735E-1,-5.3358424E-2],"categories":[],"categories_nodes":[],"categories_segments":[],"categories_sizes":[],"default_left":[0,0,0],"id":60,"left_children":[1,-1,-1],"loss_changes":[6.970206E2,0E0,0E0],"parents":[2147483647,0,0],"right_children":[2,-1,-1],"split_conditions":[5.0008E2,1.3864735E-1,-5.3358424E-2],"split_indices":[9,0,0],"split_type":[0,0,0],"sum_hessian":[8.0375226E2,3.0207764E2,5.0167462E2],"tree_param":{"num_deleted":"0","num_feature":"10","num_nodes":"3","size_leaf_vector":"1"}},{"base_weights":[-4.4350296E-1,-5.33095E-2,-7.17349E-2,7.326204E-1,-2.1200648E-1,9.0264404E-1,-3.6780484E-2,6.6450316E-1,-2.6585197E-1,1.2974802E0,3.7045965E-1,1.1441614E-1,2.3536813E-1,1.5241109E-1,-3.3112332E-1,5.370668E-1,1.6007569E0,1.0696154E-1,4.3271827E-3,-3.3291563E-2,6.358635E-2,-1.8262152E-1,7.899791E-1,4.2889887E-1,-3.6115023E-1,1.0334783E-1,-3.6248446E-3,4.9531903E-2,1.8220828E-1,-2.671562E-2,7.157907E-2,4.583734E-2,-4.7084086E-2,1.3432568E-1,-3.1716775E-2,-3.0992864E-2,9.8988436E-2,5.5989373E-2,-3.8334932E-2],"categories":[],"categories_nodes":[],"categories_segments":[],"categories_sizes":[],"default_left":[0,0,0,0,0,0,0,0,0,0,0,0,0,0,0,0,0,0,0,0,0,0,0,0,0,0,0,0,0,0,0,0,0,0,0,0,0,0,0],"id":61,"left_children":[1,-1,3,5,7,9,-1,11,13,15,17,-1,19,21,23,25,27,-1,29,-1,-1,31,33,35,37,-1,-1,-1,-1,-1,-1,-1,-1,-1,-1,-1,-1,-1,-1],"loss_changes":[1.9972092E1,0E0,1.3448846E1,3.6474085E0,4.948224E0,2.8053207E0,0E0,9.939487E-1,2.6703334E0,1.118496E0,2.0586586E0,0E0,1.2354404E0,3.0575864E0,2.0564651E0,1.161813E0,4.7427845E-1,0E0,1.406926E0,0E0,0E0,2.017628E0,3.4189541E0,1.8088398E0,1.8646698E0,0E0,0E0,0E0,0E0,0E0,0E0,0E0,0E0,0E0,0E0,0E0,0E0,0E0,0E0],"parents":[2147483647,0,0,2,2,3,3,4,4,5,5,7,7,8,8,9,9,10,10,12,12,13,13,14,14,15,15,16,16,18,18,21,21,22,22,23,23,24,24],"right_children":[2,-1,4,6,8,10,-1,12,14,16,18,-1,20,22,24,26,28,-1,30,-1,-1,32,34,36,38,-1,-1,-1,-1,-1,-1,-1,-1,-1,-1,-1,-1,-1,-1],"split_conditions":[3.49261E3,-5.33095E-2,5.91E0,3.92409E3,1.07E0,1.3295E2,-3.6780484E-2,9.8E-1,2.06E0,2.852E1,1.636E1,1.1441614E-1,4.176E1,2.4846E2,6.977E1,1.545E1,1.347E1,1.0696154E-1,5.84E0,-3.3291563E-2,6.358635E-2,6.89E0,3.85254E3,3.55E0,9.29E0,1.0334783E-1,-3.6248446E-3,4.9531903E-2,1.8220828E-1,-2.671562E-2,7.157907E-2,4.583734E-2,-4.7084086E-2,1.3432568E-1,-3.1716775E-2,-3.0992864E-2,9.8988436E-2,5.5989373E-2,-3.8334932E-2],"split_indices":[9,0,1,9,8,6,0,8,2,4,5,0,4,6,6,5,5,0,1,0,0,1,9,2,5,0,0,0,0,0,0,0,0,0,0,0,0,0,0],"split_type":[0,0,0,0,0,0,0,0,0,0,0,0,0,0,0,0,0,0,0,0,0,0,0,0,0,0,0,0,0,0,0,0,0,0,0,0,0,0,0],"sum_hessian":[5.997765E2,4.829555E2,1.1682096E2,1.672016E1,1.001008E2,1.46381855E1,2.0819736E0,5.1370935E0,9.496371E1,7.577953E0,7.060232E0,1.6389649E0,3.4981284E0,1.2638746E1,8.232496E1,2.9506333E0,4.6273193E0,1.7661864E0,5.294046E0,1.5158916E0,1.982237E0,8.752829E0,3.8859177E0,2.6240041E0,7.970096E1,1.1512101E0,1.7994232E0,1.3120576E0,3.3152618E0,4.283881E0,1.0101646E0,2.5317953E0,6.2210336E0,2.4488745E0,1.4370432E0,1.3256408E0,1.2983634E0,1.3056979E0,7.839526E1],"tree_param":{"num_deleted":"0","num_feature":"10","num_nodes":"39","size_leaf_vector":"1"}},{"base_weights":[2.8890705E-1,-5.3290695E-2,1.0631665E0,1.3886158E-1,5.952436E-1,6.5357673E-1,-3.9510655E-1,9.4345585E-2,6.994404E-1,-4.8163753E-2,2.112448E-2,4.0842557E-1,-4.6882432E-2,2.3521703E-1,7.7032024E-1,-2.2017442E-2,8.0110975E-2,6.1436683E-2,-4.0312443E-2,-4.0345695E-2,7.945653E-2],"categories":[],"categories_nodes":[],"categories_segments":[],"categories_sizes":[],"default_left":[0,0,0,0,0,0,0,0,0,0,0,0,0,0,0,0,0,0,0,0,0],"id":62,"left_children":[1,-1,3,-1,5,7,9,11,13,-1,-1,15,-1,17,19,-1,-1,-1,-1,-1,-1],"loss_changes":[5.4586255E2,0E0,6.642142E1,0E0,1.0824165E1,4.3737183E0,6.6823363E-1,2.7166424E0,5.0776367E0,0E0,0E0,2.5705671E0,0E0,5.71983E0,4.2538834E0,0E0,0E0,0E0,0E0,0E0,0E0],"parents":[2147483647,0,0,2,2,4,4,5,5,6,6,7,7,8,8,11,11,13,13,14,14],"right_children":[2,-1,4,-1,6,8,10,12,14,-1,-1,16,-1,18,20,-1,-1,-1,-1,-1,-1],"split_conditions":[2.99992E3,-5.3290695E-2,3.49261E3,1.3886158E-1,4.26332E3,1.634E1,1.76E0,3.176E1,6.07E0,-4.8163753E-2,2.112448E-2,2.106E1,-4.6882432E-2,3.7774E3,1.62E0,-2.2017442E-2,8.0110975E-2,6.1436683E-2,-4.0312443E-2,-4.0345695E-2,7.945653E-2],"split_indices":[9,0,9,0,9,4,8,5,1,0,0,5,0,9,2,0,0,0,0,0,0],"split_type":[0,0,0,0,0,0,0,0,0,0,0,0,